AAAAAA 0.135069 -0.250365 0.517435 0.241966 -0.377616 0.056320 0.443377 -0.013450 0.007775 -0.424558 -1.683138 1.288955 -0.520992 0.239520 0.171225 -0.017469
TTTTTT 0.368926 0.306139 -0.596609 -0.014566 0.275295 1.137137 -0.026481 0.192250 -0.699578 0.282357 -0.650937 1.893183 0.486008 -1.106733 -0.234570 -0.242316
AAGAAA 0.354575 -0.577937 0.559048 -0.291208 -0.605145 -0.163324 -0.008258 -0.104610 -0.063334 -0.304497 -1.709845 0.742920 -0.261010 0.772657 -0.043545 0.115849
GAAGAA 0.886192 -1.009110 0.517057 -0.052159 -0.225784 -1.011947 0.878110 -0.838505 0.161854 0.588498 -0.952240 0.426718 -0.598476 0.425197 0.563372 -0.200259
AGAAAA 0.429833 -0.030617 0.882077 -0.025986 -0.338042 -0.246113 0.425165 0.282327 0.143251 -0.496237 -1.361688 1.060494 -0.521467 0.517280 0.409992 0.445631
CTGCTG -0.200739 -0.405795 -0.778965 -0.301103 -0.388395 0.026962 -0.479772 -0.364342 0.122432 0.210028 0.297076 -1.089132 1.313545 0.480253 -0.936152 0.133059
CTGGAG 0.181171 -0.503967 -0.545624 -0.648279 -0.652084 -0.402868 -0.257373 -0.694679 0.175921 0.078035 -0.230879 -1.045422 1.017307 0.764202 -0.689706 -0.130478
AGAAGA 0.329832 0.170312 1.337756 -0.339588 -0.350623 -0.606759 0.741656 0.903720 0.174610 -0.767320 -0.754515 0.240091 -0.432520 0.298309 0.702718 0.661848
AAAGAA 0.647260 -0.617081 0.562953 0.076053 -0.354214 -0.432404 0.573094 -0.449101 0.201407 -0.007751 -1.546883 1.037097 -0.542291 0.598879 0.502570 -0.187336
GAGGAG 0.722590 -0.859881 -0.558558 -1.063458 -0.971558 -0.949172 0.159414 -0.989443 0.116950 0.116392 -0.718418 -1.479917 0.638246 0.840824 -0.438691 -0.604496
AAGAAG 0.547962 -0.622525 0.185219 -0.614985 -1.001818 -0.198223 -0.345256 -0.337722 -0.069382 -0.489862 -1.474364 -0.235848 0.147100 1.258180 -0.469606 0.008145
CAGCAG -0.309007 -0.608068 -0.115233 0.102969 -0.540725 -0.548336 0.300531 -0.213074 0.256099 0.185730 -0.012405 -0.841694 0.593863 0.992293 -0.907041 0.424488
CTGCAG -0.194301 -0.583254 -0.450728 -0.304469 -0.549243 -0.351479 -0.152113 -0.389950 0.184358 0.269069 0.123524 -1.020286 1.009147 0.810297 -0.896067 0.223667
GGAGGA 0.353890 -0.273356 0.571128 -0.174443 -0.154481 -1.910682 1.556458 -0.246640 0.365027 0.093183 0.486581 -0.367970 -0.274859 -0.504802 0.496172 0.424960
CCCAGC -0.422826 0.463452 0.394772 0.341174 -0.622563 0.000469 0.495642 0.734399 0.367955 -0.306742 0.649566 -1.292632 0.901056 0.118425 -0.155813 -0.492132
TGAAGA 0.266163 0.356061 1.068551 -0.164986 -0.107978 -0.507782 0.612274 1.025614 0.249006 -0.526604 -0.323485 0.678315 -0.311747 0.191138 0.586824 1.217741
AAAAAT 0.276658 -0.048017 0.089984 0.184859 -0.241793 0.330833 0.145090 -0.021750 0.274617 -0.260354 -1.631427 1.548143 -0.603133 -0.010220 0.427606 -0.166021
CAGCTG -0.305057 -0.590423 -0.387438 -0.128735 -0.436098 -0.274959 -0.105044 -0.261759 0.328769 0.340367 -0.027399 -0.902054 1.020016 0.751609 -0.909314 0.303542
CAGGAG 0.081539 -0.693978 -0.266471 -0.654698 -0.791634 -0.813264 0.164334 -0.499661 0.158992 -0.116996 -0.513108 -1.117610 0.813992 0.791640 -0.697329 -0.068625
AGGAGG -0.309303 0.201453 0.765590 -1.239193 -0.502338 -0.792571 0.434879 1.554036 -0.512262 -0.799844 -0.589212 -1.421885 0.159699 0.160785 -0.431424 0.622593
ATTTTT -0.094717 0.211799 -0.536702 -0.108984 0.219917 0.895684 -0.151306 0.189406 -0.388779 0.284336 -0.891137 1.985581 0.154963 -0.630543 0.081288 -0.375955
CCTGGA -0.077541 -0.457647 0.430084 0.503478 0.194304 -1.008054 1.289684 -0.090885 0.454917 0.745050 0.786044 -0.297156 0.101540 -0.482726 0.184101 0.249639
GAAAAA 0.687751 -0.739953 0.577702 -0.037209 -0.285950 -0.245751 0.566240 -0.453010 0.217244 0.075238 -1.520047 1.071163 -0.697742 0.439102 0.391695 -0.056735
GAGAAG 0.598502 -0.725843 -0.324507 -0.843821 -0.921778 -0.505827 -0.049102 -0.718791 0.012513 -0.023937 -1.120694 -0.695892 0.399386 1.192602 -0.497230 -0.234908
CCTGGG -0.193198 -0.284619 0.118280 0.190104 -0.086656 -0.756127 1.141356 0.244578 -0.007880 0.636011 0.814125 -0.951620 0.714521 -0.517371 -0.498095 -0.074293
CCCAGG -0.217779 0.001856 0.666336 -0.098068 -0.428451 -0.111509 0.496413 1.016474 -0.189752 -0.207142 0.288719 -1.266517 0.968834 -0.048295 -0.600403 0.147363
CCAGCC -0.293823 -0.277595 0.542034 0.571547 -0.084790 0.120957 0.449414 0.579676 0.421500 0.236074 0.576304 -1.446132 0.690686 0.018075 -0.001849 -0.309343
CTCCTG -0.031536 -0.277470 -0.201806 0.671126 -0.284520 0.312704 0.081320 -0.236628 -0.002115 0.141915 0.680964 -0.617205 1.338231 0.133055 -0.997289 -0.139325
AGCAGC -0.256025 0.835180 0.720944 -0.327252 -0.619928 -0.301909 0.320874 0.977092 0.034273 -0.892603 0.100675 -1.106961 0.418582 0.808255 0.440489 -0.465725
AGGAAG 0.033645 -0.218606 0.580485 -0.736874 -0.825566 -0.418898 0.117148 0.632030 -0.250273 -0.679629 -1.118979 -0.619190 0.190957 0.556228 -0.572220 0.386009
CAGCCT -0.190781 -0.804133 0.303509 0.980865 -0.005820 -0.114721 0.850680 0.084617 0.287441 0.644250 0.635305 -0.687753 0.721478 -0.143812 -0.634669 0.029311
TGGAGA -0.016135 0.263093 0.858758 -0.607603 -0.036399 -0.390280 0.343929 1.195489 0.030156 -0.403641 -0.370930 -0.324663 0.063133 0.084055 0.411801 0.892166
CAGAAG 0.187235 -0.614970 0.017543 -0.360693 -0.648442 -0.219167 -0.205288 -0.248611 0.097227 -0.155564 -1.025724 -0.371256 0.501654 1.010750 -0.604646 0.185034
GGAGAA 0.535535 -0.606765 0.351634 -0.047221 -0.052721 -1.416632 1.245128 -0.549099 0.422202 0.408356 -0.216223 0.143992 -0.474849 -0.181477 0.545615 0.211251
AGAGAA 0.509995 -0.354827 0.789312 -0.205817 -0.339864 -0.821895 0.842950 -0.020274 0.287539 -0.098634 -1.017084 0.501957 -0.515967 0.401623 0.481892 0.368502
AAAAGA 0.500170 -0.106126 0.945444 -0.156889 -0.487221 -0.222076 0.464040 0.367299 0.092685 -0.499680 -1.422100 0.972445 -0.625388 0.525005 0.445177 0.483565
GCCCAG -0.292976 -0.440008 -0.225834 0.051862 -0.444993 -0.465177 0.251235 -0.274949 0.407811 0.272212 0.396107 -1.268530 1.055494 0.187956 -0.454824 -0.538752
GGAAGA 0.492697 0.004149 1.017195 -0.415732 -0.149469 -1.147646 1.014894 0.478798 0.163807 -0.412555 -0.287182 0.135440 -0.388187 -0.157836 0.684798 0.576219
GCCTGG -0.383902 0.150829 0.353881 -0.353165 -0.022497 -0.143193 0.179547 0.909068 0.191515 -0.097241 0.243965 -1.439740 0.781281 -0.337008 0.054874 -0.003587
GAGCTG 0.203563 -0.557044 -0.815934 -0.906990 -0.770592 -0.625246 -0.107104 -0.670868 0.147712 0.215521 -0.318960 -1.259717 0.977653 0.827881 -0.707788 -0.117005
CCAGGA -0.000156 -0.378287 0.558453 0.208551 -0.019308 -0.877368 1.206097 0.247312 0.266520 0.557143 0.424219 -0.506293 0.187433 -0.231265 0.203606 0.286819
CCTGCC -0.261034 -0.138468 0.309362 0.957029 0.154059 0.297720 0.579663 0.216230 0.402858 0.585893 1.016969 -1.212291 0.959698 -0.408551 -0.162600 -0.787423
AGCTGG -0.542291 0.492893 0.664277 -0.807043 -0.393548 -0.227446 0.181377 1.568921 -0.135971 -0.559476 0.006919 -1.158559 0.385262 0.208569 0.209122 0.219268
TATTTT 0.105479 0.453246 -0.871514 -0.273235 0.186510 0.979860 -0.151373 0.115647 -0.258171 0.561587 -0.910096 2.159371 -0.099867 -0.525042 0.281519 -0.191675
TCCTGG -0.063936 0.157107 0.669554 -0.174399 0.054592 0.498145 -0.023734 1.120055 -0.201941 -0.168676 0.349208 -1.000581 0.934670 -0.215064 -0.063505 0.192493
AGGAGA -0.081086 0.198827 1.119497 -0.888006 -0.411066 -0.739797 0.533279 1.210153 -0.145249 -0.767009 -0.662080 -0.611124 -0.084229 0.277501 0.168913 0.591405
AGGAAA 0.141427 -0.134154 0.573455 -0.389407 -0.601024 -0.313943 0.332954 0.494437 -0.281636 -0.457449 -1.340038 0.430595 -0.207523 0.486107 -0.145117 0.279857
CAGAAA 0.112636 -0.565964 0.408966 0.011330 -0.378988 -0.069532 0.108208 -0.104077 0.176967 0.038556 -1.193138 0.446454 0.041427 0.696586 -0.244356 0.283463
GAAGAG 0.809119 -1.108375 0.057290 -0.534062 -0.541343 -0.926926 0.637803 -0.842162 0.192361 0.419826 -1.060510 -0.280691 -0.062186 0.560306 0.032807 -0.379360
GCTGCT -0.050303 -0.681352 -0.198771 0.180935 0.568317 -0.641260 0.878860 -0.658099 0.264159 0.742104 0.741737 -0.677071 0.273621 -1.124867 0.410946 -0.478101
GAGAAA 0.524116 -0.601670 0.035834 -0.513516 -0.628602 -0.354440 0.211782 -0.533891 0.111154 0.020129 -1.387501 0.305812 -0.156683 0.702943 0.074944 -0.198412
TGCTGG -0.585319 0.734970 0.345044 -0.855418 0.140974 -0.042452 0.040226 1.705734 -0.135715 -0.077148 0.498066 -0.806889 0.593228 -0.071679 0.151088 0.580201
GCTGGA 0.117847 -0.589057 0.346152 0.164813 0.246784 -1.322921 1.183038 -0.439881 0.380942 0.538073 0.666842 -0.386177 -0.121008 -0.877074 0.484131 0.170630
TTTTCT 0.404436 0.182294 -0.189534 0.260069 0.304601 1.218247 -0.011408 0.242745 -0.599811 0.518589 -0.380507 1.374116 0.417538 -0.880521 -0.056334 -0.502200
AAGGAA 0.592633 -0.864390 0.387678 -0.281247 -0.561053 -0.432042 0.262327 -0.426282 0.010166 0.055413 -1.457107 0.281354 -0.142850 0.601729 -0.136576 -0.090960
CCCCAG -0.378516 -0.286772 0.264508 0.555170 -0.458856 -0.081610 0.425084 0.305168 0.308541 0.378485 0.595701 -1.151662 0.920861 0.271468 -0.833197 -0.077702
GCTGGG -0.379759 -0.093688 -0.177230 -0.301911 0.125329 -0.988489 0.989495 0.144046 0.013506 0.329900 0.546674 -1.091794 0.607851 -0.985646 -0.041301 -0.349316
CCCTGG -0.422743 -0.021398 0.572975 -0.117378 -0.046199 0.101596 0.194163 1.201594 0.043152 0.059717 0.585679 -1.407674 0.873568 -0.228269 -0.433264 0.374988
CCTGGC -0.417839 0.022339 -0.107091 0.409853 0.031842 -0.650033 1.003557 0.130196 0.382846 0.486238 1.261036 -0.739486 0.618758 -0.394530 -0.126387 -0.142465
CCTCCC -0.148166 -0.433471 0.343889 1.198643 0.009431 0.718755 0.508450 0.519191 -0.002980 0.320184 1.101323 -1.193986 0.950629 -0.297659 -0.710167 -0.512126
AAAAAG 0.403109 -0.484031 0.361130 -0.138834 -0.533825 0.024467 0.107529 -0.196923 -0.126066 -0.362563 -1.658504 0.828338 -0.288233 0.683301 -0.080403 0.015457
AAAATA -0.226194 -0.283150 0.096949 0.198654 -0.098427 0.388766 -0.129341 0.043400 0.110657 0.041849 -1.907734 1.583649 -0.628862 0.128074 0.116301 0.094781
CTGCCT -0.167917 -0.553220 -0.100105 0.690771 0.108431 0.310782 0.302325 0.153462 0.085246 0.580739 0.660939 -0.683192 1.001894 -0.306416 -0.685208 -0.055804
TTTAAA 0.196610 0.142462 -0.170530 -0.076863 0.055786 0.526358 0.027185 -0.083906 -0.296703 0.101706 -1.229870 1.994724 -0.224183 -0.297047 0.252766 -0.254423
TGGAGG -0.368380 0.231867 0.677410 -1.006787 -0.159550 -0.458808 0.204583 1.539589 -0.325823 -0.424954 -0.178599 -1.101529 0.273483 -0.027219 -0.168605 0.658075
AATAAA 0.158500 -0.233312 0.160372 0.124552 -0.152168 0.232909 0.052810 -0.143756 0.016161 -0.051727 -1.494720 1.761751 -0.415930 0.067033 0.511510 -0.282073
AAAATG 0.081989 -0.563324 0.088359 -0.260026 -0.183367 0.288571 -0.351247 -0.106227 0.050205 -0.052013 -1.678598 0.884250 -0.032648 0.290698 -0.121221 0.407198
GCCCTG -0.270038 -0.326731 -0.370803 -0.087153 -0.453458 -0.186765 -0.152460 -0.380109 0.462591 0.311755 0.392251 -1.483275 1.300489 0.122287 -0.616447 -0.489097
TGGAAA 0.113921 0.016303 0.444916 -0.306032 -0.187514 -0.014559 0.141965 0.486342 -0.067857 -0.226855 -0.952657 0.694026 -0.002244 0.264418 0.036332 0.595196
TGAAAA 0.241888 0.242445 0.682402 0.100276 -0.036590 -0.019828 0.407736 0.598610 0.273818 -0.410223 -0.982517 1.376172 -0.307761 0.117322 0.425561 0.985676
GAGGAA 0.814018 -0.939776 -0.030523 -0.564422 -0.479405 -0.969912 0.625249 -0.798137 0.065534 0.364316 -0.966152 -0.370854 -0.067442 0.388354 0.017643 -0.402445
CTGAAG 0.166265 -0.703681 -0.137767 -0.641901 -0.794301 0.044804 -0.497462 -0.381714 0.027973 -0.078621 -1.005348 -0.491823 0.722709 1.008302 -0.766466 0.081276
TTTTAA 0.128094 0.423954 -0.545478 0.151619 0.263578 0.753582 0.016453 0.274602 -0.243839 -0.395683 -1.030932 2.158905 -0.320370 -0.574695 0.007867 0.275836
CTCCAG -0.202867 -0.378269 0.269892 0.719893 -0.431432 -0.124905 0.373247 -0.161598 0.097540 0.033094 0.352322 -0.465724 0.831512 0.439836 -0.950967 0.032422
AGGCTG -0.051192 -0.083647 -0.073763 -0.616825 -0.380019 -0.299106 0.278895 0.654479 -0.423448 -0.331517 -0.310412 -1.058328 0.933547 0.144124 -0.898623 0.535117
CTGCCC -0.342438 -0.161673 -0.024852 0.397304 -0.398244 0.231907 -0.056792 0.248970 0.291086 0.306618 0.826261 -1.368315 1.295805 0.341025 -0.825510 -0.084631
TTTTTA -0.131470 -0.016182 -0.578355 -0.161732 0.337776 1.049513 -0.247972 0.155229 -0.700346 0.141278 -1.141085 1.991493 -0.148995 -0.573313 -0.238096 -0.194783
CTGGCC -0.199470 -0.043394 -0.618912 -0.121151 -0.658253 0.039819 -0.381174 -0.303146 0.479245 -0.031812 0.413493 -1.461731 1.472659 0.365570 -0.655863 -0.569569
GGAAAA 0.508836 -0.332498 0.532628 -0.107849 -0.223075 -0.599912 0.735568 0.000148 0.241063 -0.049402 -0.968283 0.883061 -0.460178 -0.084933 0.622278 0.238025
AGAGGA 0.250366 0.088207 1.025980 -0.269862 -0.407458 -1.251291 1.155976 0.307845 0.262337 -0.400896 -0.182476 0.085174 -0.240061 0.017066 0.599905 0.467709
CAGCCC -0.524471 -0.235917 0.279915 0.591873 -0.472426 -0.126241 0.401023 0.346537 0.282188 0.163784 0.747208 -1.286195 0.938534 0.472478 -0.752766 -0.037215
GGCTGG -0.339396 0.409244 0.068365 -0.885438 -0.024441 -0.664126 0.416777 0.771354 -0.110354 -0.126731 0.606346 -1.014025 0.889999 -0.448336 -0.027353 0.237972
TTTCTT 0.258105 0.046773 -0.299463 0.337569 0.233830 0.929484 0.158854 0.036660 -0.519493 0.546182 -0.203974 1.669201 0.493658 -0.658085 -0.369672 -0.054882
CCAGCA -0.436918 -0.931525 0.684048 0.327161 0.450690 -0.223296 0.475536 0.398573 0.647564 0.634720 0.108606 -1.086030 0.128749 -0.423433 0.258779 0.239845
TTAAAA 0.012567 -0.348735 -0.047804 0.044886 0.190523 0.738972 -0.187380 0.074040 -0.420388 -0.004736 -1.592034 1.827266 -0.478029 0.050130 -0.028716 -0.201469
CTGGGC -0.310590 0.301656 -0.564655 -0.302985 -0.619533 -0.456996 0.073613 -0.353158 0.328088 -0.069902 0.548096 -1.175550 1.333897 0.088729 -0.463126 -0.314121
CCTCCT 0.014730 -0.638045 0.326594 1.154742 0.356506 0.487444 0.690741 0.298309 0.053946 0.967859 1.048383 -0.750763 0.825792 -0.521852 -0.348184 -0.477414
AGAAAG 0.252968 -0.182662 0.833774 -0.434033 -0.543797 -0.379828 0.344952 0.490708 -0.087688 -0.637084 -1.279685 0.266150 -0.264223 0.482011 -0.014374 0.545762
CTGGGA -0.014523 -0.334803 -0.111099 -0.000328 -0.137026 -0.500017 0.717560 0.014225 0.176729 0.202800 0.113281 -0.573516 0.665607 -0.368540 -0.591286 0.405666
TGCTGC -0.818764 1.193966 0.257708 -0.431808 0.198548 0.042817 -0.014048 1.576826 0.040085 -0.115031 1.016575 -0.534826 0.585363 0.190546 0.437947 0.287174
AAGGAG 0.439255 -0.784605 -0.180119 -0.847873 -0.983203 -0.501321 -0.089884 -0.697935 0.073762 -0.258949 -1.135488 -0.674746 0.517964 1.045710 -0.525641 -0.250236
CCAGGC -0.338970 -0.007375 0.139567 0.109231 -0.050294 -0.506801 0.855611 0.395533 0.347067 0.430312 0.853694 -0.912134 0.721540 -0.307017 -0.041210 -0.135710
TTCCTG 0.014102 0.091730 -0.435537 0.028538 -0.521433 0.534842 -0.509885 -0.240580 -0.026087 -0.050005 0.101258 -0.040871 1.323980 0.419182 -0.788953 -0.135114
GAAGGA 0.559202 -0.572469 0.505286 -0.185829 -0.198716 -1.418317 1.227199 -0.463457 0.346782 0.276631 -0.274191 0.231217 -0.376291 -0.103848 0.534752 0.262458
TAAAAA -0.145069 0.365056 -0.034436 0.386400 0.038782 0.324534 0.161506 0.255632 0.158220 -0.680754 -1.361063 1.884128 -0.597035 -0.161272 0.161539 0.388851
CTTCCT -0.107586 -0.559427 0.013415 1.112990 0.359636 0.176851 0.866696 0.008849 -0.099466 0.948566 0.970057 0.191169 0.572419 -0.491992 -0.583656 -0.065420
CTGGAA 0.281235 -0.827885 -0.025570 -0.145556 -0.280629 -0.408473 0.372750 -0.456072 0.121990 0.359145 -0.590982 -0.036312 0.327354 0.356434 -0.501845 0.065743
GCAGCA -0.317360 -1.208118 0.335521 0.004368 0.606022 -0.605420 0.498090 -0.053848 0.805530 0.308176 -0.187861 -1.240451 -0.256678 -0.700839 0.719415 0.039295
CAGCCA -0.387965 -0.755428 0.529601 0.459111 0.102894 -0.178458 0.438840 0.454390 0.388605 0.566119 0.155391 -0.794821 0.441645 0.125882 -0.309952 0.323591
CAGAGA -0.001185 -0.257408 0.667168 -0.197182 -0.395883 -0.526367 0.501008 0.522788 0.146278 -0.187003 -0.696212 -0.140044 0.074895 0.412928 -0.054924 0.506042
TCCCAG -0.144953 -0.118429 0.285999 0.275026 -0.338176 0.193154 0.455409 0.507723 -0.152645 0.118761 0.111936 -0.738957 0.800967 0.263561 -0.610371 -0.391103
CCAGCT -0.248386 -0.721237 0.320370 0.450257 0.381044 -0.158117 0.843357 0.284631 0.390002 0.728463 0.522367 -0.796620 0.344525 -0.579593 0.275255 -0.151525
GGAGGC -0.010450 0.485974 0.034295 -0.449932 -0.407609 -1.753649 1.279177 -0.150783 0.365528 -0.221053 0.760164 -0.812342 0.233580 -0.423942 0.393582 -0.087864
GAGCAG 0.228590 -0.737054 -0.342544 -0.522419 -0.751953 -0.792671 0.134463 -0.685332 0.181829 0.201546 -0.400453 -1.102467 0.654511 0.736714 -0.697055 0.000347
AGCTGC -0.519815 1.072002 0.607781 -0.549310 -0.275572 -0.089135 0.150585 1.373635 0.084058 -0.652352 0.500702 -0.961205 0.379215 0.424920 0.344075 0.077027
TGTTTT 0.028713 0.558653 -0.532311 -0.336378 0.381178 0.632650 -0.177410 0.359249 -0.504854 0.434975 -0.400107 1.890801 0.448503 -0.832377 -0.036680 0.220227
GAAAAT 0.672101 -0.593659 0.317391 -0.056969 -0.060615 -0.123403 0.487603 -0.454472 0.138197 0.281517 -1.356964 1.154023 -0.574077 0.105437 0.625751 -0.211693
AAAACA 0.034339 -0.502594 0.582321 0.071949 -0.111259 0.253227 -0.070911 0.247203 0.396622 -0.040657 -1.515505 0.804013 -0.374124 0.222269 0.590193 0.042137
CCTGCT -0.228830 -0.706586 0.110388 0.776398 0.530766 -0.293747 0.923789 -0.148022 0.232948 0.895755 1.017577 -0.773727 0.566502 -0.778301 -0.004469 -0.362901
CAGGAA 0.265475 -0.832613 0.214381 0.004276 -0.365195 -0.578088 0.509943 -0.429252 0.198941 0.314611 -0.652245 -0.106276 0.179072 0.484674 -0.150425 0.022121
TGGAAG 0.003028 -0.116562 0.353565 -0.720071 -0.423023 -0.113964 -0.153325 0.527628 -0.106172 -0.395539 -0.801117 -0.352455 0.258016 0.456051 -0.395028 0.667326
AGAAGG -0.084791 0.115236 1.085830 -0.777115 -0.350851 -0.614094 0.521593 1.352494 -0.271113 -0.777676 -0.726298 -0.513827 -0.137476 0.280547 0.074267 0.610088
TGGCTG -0.374694 -0.153204 -0.087812 -0.688009 0.030295 -0.068901 -0.138436 0.693772 -0.053046 0.097199 0.001673 -0.769651 0.857773 0.098921 -0.519300 0.678389
AGCCTG -0.334948 0.101784 0.011828 -0.237519 -0.697211 -0.215394 0.122318 0.226944 0.370911 -0.349193 -0.159708 -1.024460 0.966060 0.606853 -0.472018 -0.145354
GCCTCC 0.123927 0.006669 0.405738 0.713562 -0.160047 0.638892 0.216720 0.165386 0.082272 -0.109716 0.962803 -1.356808 0.926945 -0.173537 -0.029799 -1.128670
GCAGCC -0.263269 -0.620945 0.254883 0.044367 0.103655 -0.362439 0.292987 -0.123420 0.598466 0.116965 0.418274 -1.721411 0.491959 -0.257336 0.227081 -0.349831
AGAAAT 0.414750 0.048731 0.628365 -0.123332 -0.196143 -0.099257 0.521082 0.300836 0.083445 -0.353337 -1.108896 1.139548 -0.420281 0.201186 0.575902 0.188155
GCTGCC -0.188487 -0.383514 0.018690 0.415827 0.123562 -0.362741 0.327974 -0.331409 0.359299 0.337730 0.833092 -1.373328 0.777352 -0.411841 0.164224 -0.727215
CTGTGG -0.408422 -0.168865 -0.050904 -0.552906 -0.016840 -0.043058 -0.080240 0.689969 0.024374 0.219743 0.045418 -0.623633 0.887537 -0.081670 -0.592809 0.817766
CCCTGC -0.712468 0.540725 0.370961 0.288570 -0.064747 0.267212 0.324976 1.313002 0.225919 0.036595 1.084602 -1.353519 0.929813 -0.036765 -0.186807 -0.092294
AAATAA 0.025150 0.186539 0.075139 0.361156 -0.142009 0.408654 0.250115 0.308838 0.196483 -0.731332 -1.555900 1.960356 -0.565913 0.005412 0.267027 0.460275
TTCTTT 0.451688 0.388697 -0.330051 0.215719 -0.089143 1.080206 -0.317331 -0.067224 -0.501694 0.101547 -0.214408 1.578080 0.812957 -0.409710 -0.356261 -0.296535
CAAGAA 0.344186 -0.796909 0.401170 0.502294 0.028606 -0.909222 1.101049 -0.625457 0.520141 0.434883 -0.459183 0.616722 -0.606107 0.601827 0.252593 0.293675
GAAAAG 0.680665 -0.927413 0.356832 -0.417401 -0.516938 -0.493155 0.336128 -0.568452 -0.130302 0.043796 -1.388718 0.501791 -0.314649 0.649726 0.061724 -0.007391
AAAATT 0.145812 -0.289221 0.173003 -0.058546 -0.125675 0.405930 -0.124376 -0.238670 -0.064123 -0.024521 -1.432449 1.611280 -0.297044 0.014045 0.367314 -0.084732
CCAGAG 0.085271 -0.776630 0.184984 0.068994 -0.396985 -0.461260 0.660966 -0.139177 0.292637 0.552588 -0.168532 -0.871519 0.504202 0.286055 -0.339757 -0.112642
CCTCAG -0.175905 -0.823922 0.251072 0.892263 -0.102087 0.127394 0.521213 0.112697 0.176902 0.494854 0.385301 -0.670929 0.748436 -0.110368 -0.721610 0.073931
CAGAGG -0.221029 -0.382803 0.428288 -0.632554 -0.509676 -0.479524 0.329037 0.717678 -0.119821 -0.206430 -0.515339 -0.900970 0.508615 0.469941 -0.549759 0.498239
AGCCAG -0.366438 0.042536 0.265887 -0.007117 -0.627772 -0.426122 0.411213 0.336523 0.158989 -0.218014 -0.070021 -0.838662 0.584896 0.578051 -0.337999 -0.167372
TTATTT 0.172742 0.042567 -0.495754 -0.123323 0.369632 1.074389 -0.158153 0.211511 -0.678323 0.240797 -0.904755 2.077636 -0.017583 -0.636453 -0.192270 -0.052835
GGGAGG -0.206544 0.190111 0.083496 -1.328870 -0.410470 -1.079835 0.920052 0.928397 -0.691871 -0.447620 -0.208622 -1.267685 0.334134 -0.456998 -0.660145 0.255565
CTGGGG -0.275126 -0.212191 -0.387699 -0.628024 -0.497634 -0.555923 0.189405 0.205755 -0.059362 0.133133 0.173289 -1.272128 1.143130 -0.298949 -0.941307 0.211324
CCAGAA 0.207876 -0.899857 0.549572 0.431536 -0.121996 -0.444144 0.823094 -0.230057 0.355151 0.761400 -0.347606 0.042820 -0.084574 0.199292 0.318631 -0.065387
AAGATG 0.117904 -0.715584 -0.091812 -0.701545 -0.446941 0.099992 -0.676956 -0.164407 0.127474 -0.411797 -1.390491 -0.304117 0.295810 0.593601 -0.520650 0.482157
CTGAGG -0.377700 -0.261433 0.049795 -0.695283 -0.456090 -0.373877 0.266906 0.715814 -0.309720 -0.243445 -0.440477 -1.148739 0.706136 0.195647 -0.797775 0.265760
GCAGAG 0.072640 -0.873203 -0.044076 -0.441928 -0.143035 -0.931065 0.512465 -0.530483 0.422100 0.211750 -0.463805 -1.080078 0.301347 0.059734 -0.015505 -0.196014
AAGAGA 0.378350 -0.246618 0.794752 -0.488469 -0.612206 -0.450277 0.236995 0.425918 0.010263 -0.591803 -1.350533 0.198577 -0.199320 0.607928 -0.081319 0.368483
GAAAGA 0.675430 -0.296539 0.906030 -0.183607 -0.262098 -0.816455 0.879807 0.017382 0.038857 -0.163883 -1.008373 0.697953 -0.584311 0.379159 0.592800 0.358139
TGCCTG -0.605592 0.411744 -0.306180 -0.265141 -0.084843 0.081049 -0.004042 0.549682 0.181643 0.160992 0.458437 -0.506564 1.109293 0.078907 -0.435180 0.195079
GGAGAG 0.375835 -0.421163 0.091473 -0.520741 -0.489285 -1.289840 0.895499 -0.375749 0.278469 0.219697 -0.265148 -0.528445 0.118327 -0.010637 0.027546 0.053990
TGGTGG -0.484931 0.172009 0.344760 -1.093109 0.219259 -0.178595 -0.056366 1.418183 -0.199935 -0.080931 0.013285 -0.849115 0.356988 -0.420760 -0.092715 1.042493
TTTATT 0.192978 0.158674 -0.457104 -0.168413 0.193112 1.012025 -0.268492 -0.095276 -0.510921 0.347651 -0.884887 2.036376 0.195062 -0.578349 0.072558 -0.234703
ATGAAG 0.034933 -0.737420 0.046276 -0.723277 -0.489159 0.179433 -0.817989 -0.109629 0.100610 -0.327120 -1.479213 -0.103824 0.329505 0.830048 -0.499810 0.441516
AAAGGA 0.531598 -0.119230 0.621063 -0.159468 -0.412872 -0.687286 0.740409 -0.135825 0.209877 -0.125761 -0.972722 0.790920 -0.340156 0.051635 0.560598 0.097976
GCTGTG -0.170903 -0.565571 -0.639052 -0.521196 0.258638 -0.371490 -0.162020 -0.539693 0.421974 0.573010 0.014771 -0.785736 0.976117 -0.794485 0.010244 -0.160249
GAAGAT 0.975667 -0.870189 0.155343 -0.216328 -0.114864 -0.853496 0.889753 -1.008211 0.148501 1.184300 -0.672313 0.472169 -0.535308 0.318057 0.747904 -0.424950
AAGCTG 0.058767 -0.457122 -0.266296 -0.556292 -0.722550 -0.114675 -0.379552 -0.382489 0.072626 -0.209254 -0.883189 -0.512072 0.743458 0.957487 -0.660787 0.041765
GCCAGG -0.314114 0.047501 0.354937 -0.291570 -0.349237 -0.469798 0.428808 0.648917 -0.052384 -0.303868 -0.006124 -1.381403 0.527719 -0.327260 -0.398574 -0.156927
AGAAGC -0.081137 0.410002 1.067199 -0.367414 -0.305137 -0.324594 0.401692 1.128003 0.045406 -0.820824 -0.427562 -0.426771 -0.296944 0.400760 0.521060 0.272451
GGCAGC -0.185512 0.723050 0.165067 -0.508415 -0.566437 -0.852275 0.621711 0.349913 0.187054 -0.431490 0.553487 -1.242876 0.568268 0.129239 0.298930 -0.299261
GGCTGC -0.374150 0.944868 -0.073829 -0.577295 -0.118113 -0.797680 0.545694 0.701220 0.161137 -0.144848 1.057663 -1.068948 0.669652 -0.117637 0.222922 0.094013
TGTGTG -0.899403 0.619100 -1.092506 -1.069136 0.487197 -0.177085 -0.591319 0.145383 0.380328 0.611414 -0.049151 0.182449 0.983875 -1.060429 0.154133 0.650266
CCTGCA -0.355580 -0.838264 0.303992 0.655124 0.625344 -0.436896 0.757852 -0.066374 0.607085 0.788409 0.626598 -0.875428 0.233205 -0.642830 0.280371 0.003941
AGGAGC -0.431018 0.510680 0.929045 -0.801335 -0.456788 -0.456318 0.255558 1.483429 -0.319089 -0.807655 -0.147424 -1.343925 0.141424 0.245275 -0.051390 0.089345
GCAGCT -0.026764 -1.008131 0.155574 0.158482 0.522889 -0.783684 0.703538 -0.311728 0.578689 0.538149 0.292651 -0.964933 0.046235 -0.805297 0.592158 -0.078743
CCTGAG 0.211902 -0.641398 -0.066938 0.192090 -0.359305 -0.481879 0.713443 -0.498581 0.218814 0.641570 0.222479 -0.754532 0.691942 0.064246 -0.352482 -0.413726
AGGCAG -0.332879 -0.083487 0.256584 -0.700318 -0.617406 -0.739680 0.644620 0.789580 -0.254240 -0.321819 -0.518163 -0.853129 0.394059 0.376605 -0.799034 0.434912
AGCAGA -0.095012 0.525150 1.102795 -0.431162 -0.434884 -0.462229 0.633962 1.103424 0.076237 -0.719371 -0.438892 -0.313606 -0.180729 0.489716 0.564228 0.129568
GCTGAG 0.267844 -0.742551 -0.312809 -0.394953 -0.186115 -1.010023 0.548534 -0.765825 0.266126 0.414571 -0.059285 -0.904312 0.410931 -0.184860 -0.053987 -0.443481
TGCAGA -0.195639 0.654472 0.737574 -0.441502 -0.040629 -0.401287 0.421462 1.213584 0.245481 -0.357740 0.002625 -0.004912 0.046733 0.189282 0.582238 0.679899
TTTTGT -0.162827 0.612001 -0.627485 -0.292677 0.439199 0.725450 0.003331 0.382567 -0.588951 0.552539 -0.366627 1.882042 0.395032 -0.877937 0.026536 0.040852
GTGGAG 0.179768 -0.592900 -0.941340 -1.148565 -0.667346 -0.676235 -0.445417 -1.025260 0.418521 0.221512 -0.522591 -1.086162 1.017083 0.279122 -0.237337 -0.260372
CCCAGA -0.210339 -0.032136 0.886674 0.470682 -0.267779 -0.170847 0.676059 0.819624 0.308520 0.009830 0.291067 -0.607863 0.335820 0.100896 -0.152823 0.202056
TTTTTG 0.114562 -0.049052 -0.568644 -0.449793 0.303638 1.008970 -0.396274 0.285373 -0.709985 0.121458 -0.722651 1.341925 0.458000 -0.799323 -0.432196 0.155224
AAGCAG 0.079541 -0.610969 0.010807 -0.397434 -0.830996 -0.344251 -0.121449 -0.284089 0.120165 -0.180878 -0.927174 -0.432346 0.388729 1.103828 -0.778751 0.263271
TCCTGC -0.228522 0.828848 0.666961 0.150486 -0.069237 0.705345 -0.103599 1.399117 -0.200379 -0.039870 1.015601 -0.845243 0.979292 0.163282 0.087806 -0.269908
CTGGTG -0.134581 -0.383302 -0.974544 -0.756428 -0.393459 -0.179949 -0.627643 -0.712210 0.448254 0.295855 -0.111371 -0.992631 1.451330 0.215549 -0.603900 0.099946
AATTTT 0.169522 0.145015 -0.315640 -0.148605 -0.010734 0.792156 -0.020208 0.194855 -0.331584 0.291105 -1.071382 1.861796 -0.191725 -0.318876 0.204378 -0.225721
TGAGGA 0.181017 0.181759 0.755143 -0.025612 -0.097414 -1.208473 1.273078 0.476386 0.394351 -0.230877 0.333297 0.412089 -0.050429 -0.240830 0.437573 1.118616
ACAGAA 0.373262 -0.618969 0.592191 0.031724 -0.094269 -0.281158 0.363291 -0.219041 0.616692 0.247597 -1.180581 0.434146 -0.357345 0.211214 0.679682 -0.156542
CTCAGC -0.184143 0.414622 0.349542 0.595871 -0.674129 0.182605 0.333733 0.299754 0.110175 -0.176405 0.690646 -0.560056 0.992744 0.732658 -0.640418 -0.267134
TTCCAG 0.056167 0.070001 -0.126292 0.201357 -0.688175 0.227508 -0.300093 -0.228869 -0.001963 -0.101788 -0.101224 0.065368 0.929152 0.623385 -0.656997 0.100966
ATGAAA -0.028951 -0.721972 0.275896 -0.309159 -0.302231 0.229015 -0.537862 -0.037689 0.148882 -0.213561 -1.815522 0.864962 -0.037915 0.481389 -0.130292 0.378894
GTGCTG -0.245732 -0.402333 -1.055837 -0.676942 -0.324657 -0.187518 -0.823720 -0.673713 0.480698 0.271586 -0.017653 -1.113762 1.315874 0.120445 -0.553104 0.131295
CTGGCT -0.024760 -0.499484 -0.439044 -0.070325 0.085696 -0.145222 0.204479 -0.232424 0.145123 0.519883 0.359648 -0.752482 1.046309 -0.378181 -0.282994 -0.062601
AATGAA 0.633336 -0.470669 0.221386 -0.185270 -0.243338 -0.136329 0.311956 -0.550203 0.148268 0.325692 -1.237375 1.246160 -0.425488 0.334887 0.657704 -0.360741
TTTTTC 0.240455 0.378943 -0.297053 0.161019 0.004877 1.081464 -0.373681 0.165900 -0.663418 -0.027945 -0.370164 1.796266 0.668788 -0.407634 -0.414397 -0.151906
CAAAAA 0.003296 -0.416336 0.450701 0.523277 -0.205262 -0.123099 0.563126 0.025656 0.442000 -0.133540 -1.133766 1.105248 -0.706508 0.512233 0.081113 0.440502
GCTGCA -0.131456 -0.919004 0.096300 0.145133 0.525637 -0.783418 0.677893 -0.501869 0.584968 0.583799 0.434378 -0.949431 0.067484 -0.785423 0.611617 -0.120221
CCTCTG -0.253282 -0.582145 -0.019171 0.494732 0.073566 0.382797 0.294474 0.302352 0.096884 0.664762 0.569235 -0.660485 1.048676 -0.280338 -0.722136 0.016649
AGAGAG 0.307107 -0.329601 0.535616 -0.500841 -0.722909 -0.957854 0.725459 0.194415 0.085538 -0.258084 -0.892339 -0.167262 -0.054568 0.385912 -0.074598 0.220549
TGCAGC -0.537539 0.965397 0.501209 -0.303749 -0.259762 -0.068789 0.074507 1.093833 0.138144 -0.552478 0.549707 -0.738164 0.475118 0.439973 0.329807 -0.012073
GCAGGA 0.049545 -0.753891 0.379912 -0.084146 0.181897 -1.363627 1.167894 -0.125600 0.576203 0.238046 0.144728 -0.764631 -0.078872 -0.722116 0.544721 0.266602
TTTCTG 0.038203 -0.120898 -0.499234 -0.114414 0.095210 0.531947 -0.127798 0.075927 -0.343871 0.215794 -0.374424 0.808325 0.633995 -0.253102 -0.452668 0.168960
GAGGCC 0.207859 -0.412623 -0.363151 -0.510772 -0.758912 -0.710269 0.187572 -0.584892 0.352996 -0.057212 0.017669 -1.607671 0.900862 0.365844 -0.275803 -0.482467
GGCCTG -0.327831 0.116253 -0.609671 -0.431128 -0.417251 -0.809003 0.360875 -0.245216 0.349505 0.163556 0.604758 -1.135345 1.177350 0.012421 -0.461858 -0.281421
TTTTAT 0.098378 0.452429 -0.707036 -0.266262 0.171187 0.954832 -0.081446 0.090805 -0.228007 0.615484 -0.881768 2.148376 0.102692 -0.530101 0.239295 -0.212303
ATAAAA -0.341269 -0.258947 0.144905 0.079715 -0.096986 0.511726 -0.338251 0.049761 0.071463 0.048662 -1.976871 1.462643 -0.522608 0.061526 0.114410 0.105443
CACCTG -0.792049 -0.021033 -0.379810 0.283029 -0.361927 -0.254349 0.021440 -0.002560 0.498792 0.415915 0.467901 -0.555490 1.009645 0.623201 -0.678355 0.178816
GCAGAA 0.356240 -1.042363 0.256361 0.037946 0.138299 -0.907435 0.732886 -0.628563 0.500784 0.434335 -0.550332 -0.096407 -0.383366 -0.101601 0.627889 -0.023372
CTTTTT 0.191669 0.090630 -0.374838 0.235187 0.221548 0.873911 0.034642 -0.003759 -0.629891 0.449713 -0.258666 1.744561 0.387574 -0.662472 -0.412073 -0.140592
CCTCCA -0.138163 -0.803086 0.609559 0.735748 0.331919 0.374204 0.505345 0.588623 0.212485 0.835060 0.463293 -0.851447 0.436392 -0.190637 -0.114733 -0.215179
CTGCCA -0.427401 -0.656405 0.065639 0.303352 0.173195 0.202388 0.088184 0.576817 0.267777 0.618333 0.240018 -0.768040 0.666089 0.037517 -0.566321 0.456893
TCCCTG 0.075601 -0.009311 0.081236 0.152761 -0.308681 0.648652 -0.148414 0.261521 -0.028815 0.215120 0.378009 -0.887283 1.362762 0.103104 -0.557927 -0.489344
CAGAGC -0.304028 0.063508 0.401702 -0.259937 -0.582523 -0.249263 0.245573 0.585072 0.092239 -0.184784 -0.101632 -0.911634 0.593292 0.623664 -0.172402 -0.082562
GGCCAG -0.346673 0.008675 -0.147554 -0.174516 -0.562959 -0.910181 0.533222 -0.257083 0.364791 0.203652 0.455340 -0.842801 0.958808 0.009167 -0.300184 -0.142054
CCTGTG -0.244989 -0.502250 -0.397999 -0.106280 0.255407 0.081482 -0.009955 -0.127572 0.498435 0.693879 0.268052 -0.717520 1.008426 -0.571585 -0.153528 0.049029
CCACCA -0.473635 -0.915662 0.701482 0.502594 0.378003 0.511496 0.419287 1.036421 0.336634 1.014079 0.329187 -1.137844 0.183007 0.231296 0.065209 -0.034678
TCCTCC 0.347057 0.502156 0.762971 0.782453 -0.303222 1.154414 0.048901 0.803491 -0.332887 -0.166855 0.910272 -0.767757 1.081177 0.211946 -0.098809 -0.926917
GAGAGA 0.346560 -0.434980 0.548646 -0.649706 -0.631548 -0.903691 0.489559 0.056307 0.097857 -0.293787 -1.114574 -0.132944 -0.189625 0.298913 0.055841 0.270994
TGGGAG 0.051754 -0.315963 -0.125773 -0.921804 -0.367648 -0.638976 0.374596 0.238398 -0.096831 -0.119274 -0.434791 -0.798833 0.693557 -0.117667 -0.409246 0.352925
CATTTT -0.198225 0.154191 -0.473353 0.167569 0.209970 0.547106 0.216629 0.104109 -0.088258 0.577125 -0.568546 1.798629 0.189735 -0.360376 -0.067161 0.301851
CAGTGG -0.310725 -0.278416 0.115102 -0.237286 -0.113403 -0.364629 0.273131 0.430102 0.067046 0.304630 -0.054559 -0.444096 0.684279 0.267968 -0.506108 0.631352
TGGCCA -0.327327 -0.217286 0.723172 -0.384816 0.326011 0.078018 0.133694 1.329793 0.036454 0.207116 0.148681 -0.878709 0.486402 -0.228278 0.042617 0.709546
GGAGCT 0.183136 -0.521613 0.143141 0.110529 0.266438 -1.424038 1.364098 -0.438334 0.455647 0.484285 0.736051 -0.525849 -0.098911 -0.859996 0.531655 0.014108
TTTGAA 0.554748 -0.264279 -0.130591 -0.199225 -0.088107 0.100965 0.131295 -0.476886 -0.192173 0.430574 -1.014019 1.382235 -0.018264 -0.032960 0.422121 -0.359676
CTTCTG -0.183131 -0.592847 -0.210843 0.364196 0.064016 0.159369 0.210210 -0.125213 -0.130848 0.522175 0.257120 0.203221 0.810540 -0.064324 -0.915357 0.313221
CTCCTC -0.261691 0.012032 0.113075 1.333645 -0.392428 0.438000 0.214813 -0.138266 -0.059826 -0.096462 1.180660 -0.338263 1.266681 0.366732 -1.269946 -0.107448
GGGCTG -0.231834 -0.023192 -0.528988 -0.752084 -0.280390 -0.700949 0.376432 0.071341 -0.174058 0.247854 0.405421 -1.374055 0.964279 -0.413183 -0.834852 0.149545
CAGCTC -0.230147 -0.362131 0.063354 0.681906 -0.511814 -0.142865 0.163212 -0.277472 0.216233 0.034831 0.543673 -0.623538 0.975600 0.685922 -0.952775 0.157417
ACAAAA 0.031238 -0.391881 0.531004 0.250956 0.048199 0.213486 -0.135810 0.223283 0.487308 -0.348063 -1.558883 0.715893 -0.542278 0.174200 0.607714 0.038933
ACCTGG -0.469488 0.104880 0.740178 -0.355801 -0.046168 0.296897 -0.252534 1.291157 0.257346 -0.418953 -0.070118 -1.253687 0.615611 -0.119588 0.304209 0.170063
CAGGCC -0.321484 -0.287073 -0.104036 0.085161 -0.603296 -0.249602 0.051761 -0.057436 0.383670 0.070966 0.292919 -1.471204 1.181251 0.333494 -0.552475 -0.469275
TGGAGC -0.495326 0.665314 0.812671 -0.753834 -0.215395 -0.225767 0.145040 1.425861 -0.073464 -0.625325 0.101555 -1.060461 0.360689 0.211603 0.224602 0.305536
AACAAA 0.175625 -0.060639 0.610500 0.324386 -0.492995 0.066858 -0.003428 -0.357894 0.260359 -0.633339 -1.515940 1.086974 -0.325453 0.788003 0.255819 -0.210092
TCCAGC 0.007373 0.497492 0.704928 0.284292 -0.368486 0.434749 0.055749 0.854934 0.078761 -0.345759 0.222694 -0.917217 0.728864 0.407044 0.167429 -0.620612
AAAGAG 0.550366 -0.630263 0.109042 -0.393691 -0.652276 -0.449256 0.324847 -0.482862 -0.076148 -0.116156 -1.452475 0.214806 -0.076207 0.591999 -0.162150 -0.085913
AAACAA 0.205547 -0.308886 0.549323 0.527966 -0.353515 -0.160949 0.464959 -0.134141 0.311417 -0.026959 -1.257151 1.192950 -0.500553 0.608210 0.161769 0.303699
CTCCCA -0.347929 -0.303911 0.496970 1.120710 -0.107038 0.290284 0.746371 0.491985 0.061782 0.524180 0.742809 -0.543583 0.830270 0.081236 -0.672127 -0.142618
CTCTGC -0.540908 0.632260 0.059374 0.497090 -0.191091 0.270084 0.039873 0.582500 -0.014958 -0.062753 1.049944 -0.373060 1.097733 0.094949 -0.451458 0.012648
CTTCAG 0.028223 -0.672913 0.107590 0.451748 -0.021319 -0.113365 0.516794 -0.224289 -0.022975 0.470944 0.020873 0.234446 0.425834 0.419747 -0.671101 0.447633
CCCACC -0.444335 0.106651 0.627836 1.084863 -0.342602 0.711392 0.083350 0.603470 0.552790 -0.093386 0.788082 -1.329587 1.039804 0.230148 -0.111839 -0.826699
TGAGAA 0.323361 -0.053915 0.528749 0.181640 0.044891 -0.675611 0.926109 0.170531 0.380057 -0.016263 -0.280268 0.816715 -0.296261 -0.003560 0.393918 0.950459
CCCTCC -0.131889 0.282350 0.600062 1.041782 -0.354731 0.756058 0.252864 0.783077 -0.016565 0.049691 1.042210 -1.219316 1.090733 -0.019120 -0.564773 -0.750750
TTTGTT 0.569761 0.307372 -0.570406 -0.219736 0.252706 0.731801 -0.076439 -0.238131 -0.689035 0.420989 -0.493952 1.852905 0.324372 -1.183192 -0.046424 -0.345600
TGTGGA -0.133297 0.517795 0.112168 -0.192497 0.209678 -0.934765 0.805813 0.314283 0.287576 0.435636 0.466441 0.629310 0.135729 -0.431852 0.475463 0.812757
TTTCCT 0.168422 -0.071634 -0.176231 0.460930 0.267785 0.794685 0.289144 0.179522 -0.315780 0.593682 -0.025652 0.885418 0.507535 -0.679909 -0.136832 -0.305077
CCTTCC 0.048148 -0.064277 0.687761 0.709615 0.160154 0.993270 0.175191 0.979524 -0.069243 0.231595 0.794399 -0.928814 0.724437 -0.333068 -0.068273 -0.603069
AGATGA 0.224404 0.411868 1.134597 -0.091820 -0.129849 -0.530094 0.726010 0.969815 0.317289 -0.629984 -0.199621 0.715340 -0.209399 0.159633 0.564764 1.221297
AAATGA 0.228964 0.223671 0.627580 0.051344 -0.181540 -0.045830 0.300920 0.564584 0.240972 -0.422945 -1.131050 1.425678 -0.319157 0.079242 0.288661 0.936191
AGCAGG -0.308378 0.419991 0.767491 -0.724210 -0.521692 -0.554173 0.482262 1.226462 -0.155189 -0.744280 -0.350780 -1.071514 0.418575 0.248209 0.000742 0.181049
GGGAAG 0.187361 0.025810 -0.079278 -1.040472 -0.718044 -0.807018 0.286651 -0.059086 -0.194546 -0.175435 -0.585823 -0.734133 0.573749 0.017742 -0.466271 -0.009654
AAGAGG 0.068736 -0.295867 0.543308 -0.870375 -0.784769 -0.462650 -0.039853 0.589688 -0.476652 -0.619454 -1.127893 -0.541693 0.106971 0.762884 -0.575114 0.368206
TCCAGG 0.013369 0.273971 0.844937 -0.237671 -0.271932 0.227840 0.231804 1.134927 -0.308008 -0.296694 -0.032883 -0.976766 0.648319 0.022960 -0.187829 -0.027793
ATTTTA 0.023315 -0.128946 -0.220649 -0.016528 0.296734 0.884936 -0.278340 0.089655 -0.498149 0.087097 -1.279232 1.934304 -0.115064 -0.231204 0.018968 -0.129274
CAAGGA 0.090224 -0.322817 0.456050 0.583319 0.079398 -1.241217 1.381538 -0.285363 0.654641 0.430540 0.219537 0.362127 -0.372029 0.137689 0.256594 0.629000
CCAGGG -0.319120 -0.332666 0.193625 -0.170239 -0.221523 -0.675910 0.950167 0.480566 0.043959 0.543423 0.411912 -1.131680 0.711185 -0.343890 -0.518479 0.098007
TCTTTT 0.573031 0.111560 -0.194049 0.223327 0.478779 1.248952 0.047874 0.327982 -0.660314 0.559206 -0.437804 1.458870 0.575911 -0.933242 -0.065082 -0.439597
CAGATG -0.223967 -0.739721 0.069712 -0.403928 -0.205708 0.152363 -0.607095 -0.003365 0.271075 0.019186 -0.933291 -0.363347 0.670409 0.472429 -0.492164 0.459748
ATGGAG 0.112482 -0.674024 -0.462400 -0.855541 -0.500107 -0.214535 -0.545167 -0.366353 0.250419 -0.073820 -1.010513 -0.644451 0.674154 0.587957 -0.340101 0.052149
CTGCTC -0.246028 -0.180424 -0.422602 0.349279 -0.433512 0.164259 -0.286284 -0.326182 0.156373 0.054957 0.743891 -0.717956 1.370630 0.494172 -1.026059 0.158673
TGCTGA -0.420858 0.685932 0.640799 -0.291565 0.228332 -0.200947 0.427269 1.322097 0.226018 -0.209809 0.388338 0.078654 0.222002 -0.072223 0.454346 1.007591
TGGCAG -0.441543 -0.020299 0.098848 -0.567719 -0.221413 -0.403169 0.173182 0.712828 0.033937 0.020686 -0.113051 -0.630654 0.587607 0.416671 -0.554845 0.766371
TGGGAA 0.308783 -0.258073 0.227258 -0.399460 -0.091106 -0.592630 0.635432 0.224255 0.034205 0.304475 -0.468730 0.230123 0.128593 0.081027 -0.006927 0.545968
AAATAT 0.025560 0.064857 -0.318123 -0.091145 -0.001053 0.486663 -0.069369 -0.003057 0.130815 0.390726 -1.381925 1.970093 -0.371333 0.120690 0.494792 -0.113010
CTGAAA 0.079506 -0.664700 0.075010 -0.203106 -0.367988 0.168654 -0.137009 -0.209934 0.044670 0.013914 -1.264885 0.453380 0.266446 0.518210 -0.425736 0.152194
TCAGAA 0.644501 -0.427639 0.640771 0.110129 -0.055393 0.006138 0.451965 -0.040824 0.138512 0.393467 -0.751918 0.540014 -0.053809 0.170349 0.511881 -0.230398
GCCAGC -0.236112 0.327201 0.359769 -0.015006 -0.525966 -0.132488 0.149396 0.264639 0.325702 -0.439595 0.459129 -1.527312 0.780736 0.308075 0.203382 -0.744139
AAATTT 0.266243 -0.173219 0.010981 -0.028546 0.015056 0.515731 0.025367 -0.081699 -0.252320 0.056921 -1.350176 1.831296 -0.118969 -0.070739 0.169883 -0.086912
GGGCAG -0.284371 -0.196394 -0.134345 -0.647154 -0.489433 -1.028697 0.677491 0.029411 -0.024904 0.243684 0.177591 -1.114963 0.737742 -0.251120 -0.645717 0.164976
ATATTT -0.286582 0.130314 -0.388339 0.013212 0.217714 0.746655 -0.436735 -0.000092 -0.188036 0.354467 -1.413288 1.907526 -0.168955 -0.458731 0.025539 0.129061
CCACAG -0.391711 -0.676036 0.416691 0.288865 -0.144249 -0.043871 0.333976 0.444501 0.393014 0.425818 -0.021015 -0.729861 0.534521 0.276349 -0.451139 0.402600
CAAAGA 0.119823 -0.174117 0.838011 0.420676 -0.194361 -0.672947 0.901374 0.295885 0.411823 -0.112243 -0.598048 0.857630 -0.542147 0.523188 0.319733 0.797965
TCCAGA 0.315175 0.250716 1.202308 0.083936 -0.272807 0.110652 0.427899 0.943462 0.110218 -0.276882 -0.155601 -0.048012 0.119007 0.147985 0.488427 0.093743
GATGAA 1.009385 -0.834154 0.171519 -0.345521 -0.163793 -0.671708 0.570367 -1.047120 0.176526 1.251317 -0.812487 0.559038 -0.277835 0.492237 0.759807 -0.675455
TTGTTT 0.315027 0.064920 -0.492745 -0.362527 0.346620 0.905645 -0.369221 0.094375 -0.830085 0.286567 -0.643977 1.625722 0.515481 -0.883214 -0.379486 0.104230
ACAGAG 0.048416 -0.560200 0.179325 -0.283076 -0.362361 -0.279434 0.073722 -0.165053 0.539476 0.137611 -0.953808 -0.501991 0.353963 0.286497 0.262128 -0.142528
CCCCTG -0.390290 -0.290325 -0.114191 0.348648 -0.429127 0.173024 0.102186 0.227180 0.161510 0.398989 0.618206 -1.294953 1.208965 0.180954 -0.796363 -0.142366
GCAGTG -0.381521 -0.908798 -0.116270 -0.455027 0.409839 -0.507050 -0.035884 -0.236580 0.513319 0.207881 -0.223361 -0.980247 0.608590 -0.635029 0.268930 0.257263
AAATGT -0.203885 0.358757 -0.084310 -0.257986 0.100830 0.285758 0.003592 0.276635 0.021665 0.195905 -0.912019 1.723576 -0.029287 -0.130960 0.379612 0.307438
GGAGCC -0.057112 -0.102760 0.337725 -0.030332 -0.171923 -0.986439 0.780632 -0.093035 0.271094 -0.151639 0.776001 -1.249710 0.435296 -0.302046 0.050853 -0.162660
CCACCT -0.227981 -0.817756 0.467150 0.942400 0.389723 0.332184 0.565054 0.378242 0.338164 0.834017 0.663484 -0.887646 0.530140 -0.236992 -0.157475 -0.157027
CACAGA -0.617010 0.244126 0.566883 0.358223 -0.314916 -0.720172 0.608194 0.379697 0.614744 0.163658 -0.139874 0.309243 0.098236 0.470629 0.149942 0.643040
TCTCCT 0.269805 -0.378805 0.558816 0.746878 0.391261 0.962270 0.269079 0.527003 -0.142435 0.746156 0.578022 -0.329889 0.715798 -0.739038 0.156980 -0.804023
TTCTTC 0.426799 0.620123 -0.184623 0.467641 -0.686365 0.870682 -0.646076 -0.196153 -0.308117 -0.367142 0.281244 0.900439 1.187330 0.430175 -0.648899 -0.169369
TTTTCA 0.259648 -0.009034 0.077790 -0.067663 0.289172 0.986688 -0.114632 0.415384 -0.292942 0.299599 -0.753905 1.322237 0.147794 -0.497634 0.228566 0.038811
TCTGTG 0.130904 -0.097786 -0.312838 -0.241521 0.205796 0.522447 -0.407873 0.074379 0.063334 0.579032 -0.188919 -0.190763 1.008186 -0.689658 0.157216 -0.219074
CAGGCT -0.060865 -0.565291 -0.049485 0.162897 -0.049090 -0.243120 0.455080 -0.239407 0.095901 0.508840 0.226055 -0.671721 0.838204 -0.465813 -0.278549 -0.370718
TCTCTG 0.138740 -0.211707 0.002939 0.084852 0.132428 0.710400 -0.109371 0.466160 -0.231624 0.560640 0.097492 -0.193543 0.971768 -0.456802 -0.426412 -0.243177
TCTGGA 0.490643 -0.057688 0.506977 0.104533 0.024924 -0.233523 0.693060 0.162265 -0.003879 0.365946 0.020348 0.143284 0.218851 -0.495084 0.497417 0.030305
GGAAGG 0.095212 0.059722 0.669004 -0.712738 -0.173437 -1.070643 0.857920 0.699067 -0.213024 -0.229389 -0.213583 -0.577851 0.078413 -0.354084 -0.017906 0.488383
ATGGAA 0.138505 -0.816013 0.114938 -0.430205 -0.222943 -0.060936 -0.209295 -0.343057 0.335306 0.272600 -1.456357 0.407343 0.035040 0.388962 0.052738 0.236302
GCTGGC -0.255560 0.054817 -0.162305 0.015509 0.022760 -1.065896 0.882631 -0.327832 0.432760 0.270353 0.993982 -0.918439 0.420180 -0.580834 0.270734 -0.194377
TGCAGG -0.629432 0.613440 0.502537 -0.715453 -0.176136 -0.316766 0.134613 1.379426 -0.058884 -0.424245 0.170036 -0.926717 0.360934 0.083985 0.059342 0.446018
TTGAAA 0.236498 -0.588548 0.114096 -0.409823 0.054639 0.544977 -0.339096 0.079354 -0.278523 -0.046161 -1.475692 1.059715 0.077042 0.065616 -0.171128 0.270652
GCCTGC -0.617709 0.561663 0.096280 -0.085636 -0.039268 0.107167 0.008295 0.692259 0.331810 -0.055610 0.861504 -1.338788 0.873039 -0.068536 0.203707 -0.340703
TAAAAT 0.072357 0.347413 -0.206152 0.263414 0.049630 0.524738 0.198620 0.193490 0.039396 -0.415922 -1.237818 2.103894 -0.397176 -0.333436 0.259361 0.267845
CTCTGG -0.146458 0.066898 0.248841 0.136044 -0.265569 0.075946 0.201755 0.571654 -0.227127 -0.018254 0.412047 -0.436695 0.947496 -0.053877 -0.705621 0.437251
TCTTCA 0.375190 -0.243251 0.779406 0.063701 0.515031 1.014756 -0.032567 0.984393 -0.101290 0.353362 -0.290152 -0.036342 0.205287 -0.351027 0.704225 -0.192480
TGATGA 0.137801 0.564233 0.941127 0.054151 0.159344 -0.556324 0.758748 0.929062 0.413066 -0.349648 0.169657 1.119629 -0.152722 0.052935 0.497923 1.661021
GCTCTG -0.167368 -0.589266 -0.357661 -0.126267 0.148864 -0.073509 0.065119 -0.057132 0.075648 0.465090 0.280246 -0.873909 0.896047 -0.357053 -0.359167 -0.080846
TCTTCT 0.544276 -0.112647 0.506972 0.358935 0.421005 1.295595 -0.013938 0.748197 -0.410109 0.489947 0.187101 0.131654 0.568304 -0.728451 0.327330 -0.632934
CAGCAA -0.265051 -0.673479 0.329255 0.650205 -0.214542 -0.622486 0.647395 -0.296139 0.477210 0.387913 -0.155277 0.266379 -0.176858 0.728441 -0.386293 0.557180
AAAGCA 0.196047 -0.703882 0.385917 0.000357 -0.098991 -0.131836 0.290585 -0.151313 0.359044 -0.014591 -1.258901 0.521925 -0.276620 -0.031835 0.456136 -0.101140
GGAAAG 0.491176 -0.299022 0.472267 -0.515104 -0.403254 -0.648196 0.441617 0.073971 0.016258 -0.212219 -0.817942 0.112303 -0.061428 -0.019376 0.067983 0.258607
GCCACC -0.319042 0.026119 0.149933 0.463352 -0.382526 0.370212 -0.285569 -0.001737 0.733976 -0.213220 0.404089 -1.409439 0.853980 0.004812 0.192035 -0.879121
ACAGCA -0.303758 -0.740230 0.702075 -0.025019 0.354816 0.042536 -0.032686 0.457754 0.826515 0.145756 -0.762268 -0.729604 -0.096478 -0.397181 0.785256 0.043814
AAGAAT 0.361559 -0.343707 0.145988 -0.315980 -0.386384 0.066400 -0.150541 -0.287443 -0.099758 -0.227761 -1.561332 0.866561 -0.132435 0.621884 0.066136 -0.028613
AGAAAC 0.051814 0.240065 0.928464 0.189221 -0.617892 -0.193382 0.027026 0.265592 0.221043 -0.942258 -1.105164 0.576750 -0.189690 0.676079 0.259163 0.258310
CCAAGA -0.056726 -0.254053 1.068587 -0.083885 0.096476 -0.064697 0.386569 1.019586 0.150646 -0.083461 -0.365233 -0.447670 -0.168824 0.218486 0.371243 0.484450
TGCTGT -0.624269 1.012886 -0.135529 -0.486733 0.418618 0.020077 0.177765 0.982600 0.037649 0.413251 0.581342 0.371560 0.607317 -0.445611 0.348901 0.502860
CAGTGA -0.070990 -0.118053 0.512422 0.109684 -0.151524 -0.634542 0.572871 0.502631 0.340411 -0.173523 -0.120080 0.213533 0.135026 0.132318 -0.213493 1.295510
ATTTTG 0.135886 -0.278847 -0.218617 -0.529825 0.139408 0.731805 -0.481997 0.092855 -0.550909 0.082808 -1.101664 1.347986 0.374707 -0.487761 -0.184685 0.208691
TGGGGA -0.040389 0.147286 0.379920 -0.550937 -0.051082 -0.908073 0.870418 0.611707 0.017593 0.182965 0.116347 -0.228646 0.434912 -0.339287 0.020394 0.701317
CCACCC -0.377957 -0.361468 0.657895 0.930553 0.057137 0.522758 0.333407 0.736168 0.277599 0.595102 0.778643 -1.300794 0.737855 0.144444 -0.375513 -0.320327
CTGGAC 0.144549 -0.172149 -0.632272 -0.215798 -0.845493 -0.270295 -0.265820 -0.664790 0.501286 0.420517 0.143364 -0.892973 1.132289 1.060325 -0.428238 -0.345460
AGCTGA -0.065736 0.467236 1.039844 -0.313648 -0.163090 -0.423175 0.522639 1.260662 0.215130 -0.693387 -0.115032 -0.300314 -0.009792 0.147620 0.458825 0.700059
CTTTCT 0.397300 -0.231900 0.129258 0.597490 0.393502 0.852057 0.300605 0.230600 -0.590504 0.756989 0.089454 0.826841 0.555305 -0.661312 -0.371008 -0.325806
GAAGCA 0.324022 -1.161429 0.274792 0.087603 0.192710 -0.871111 0.961818 -0.577793 0.618286 0.452871 -0.648513 -0.155224 -0.385698 -0.246179 0.599225 0.068599
AGCCTC -0.237843 0.566235 0.435953 0.595198 -0.825706 0.235959 0.335057 0.487705 -0.036045 -0.392476 0.569910 -0.595793 1.016736 0.706505 -0.465115 -0.465558
ATGCTG -0.177657 -0.467922 -0.481355 -0.485513 -0.272039 0.306649 -0.772357 -0.094376 0.322712 0.050856 -0.716985 -0.475085 0.991447 0.464122 -0.547840 0.456940
GTGGTG -0.128149 -0.249419 -1.279683 -1.043540 -0.281412 -0.435960 -0.832318 -0.920705 0.703063 0.166450 -0.320598 -1.020757 1.309441 -0.388759 -0.045553 -0.054151
CAGGTG -0.311029 -0.491164 -0.643619 -0.514011 -0.357206 -0.252142 -0.316163 -0.376853 0.451075 0.101828 -0.344025 -0.935434 1.104177 0.033637 -0.586458 0.128192
GGCAGG -0.343704 0.535921 0.073493 -0.971798 -0.555388 -1.176920 0.804041 0.651970 -0.072777 -0.479091 0.124417 -1.126732 0.730870 -0.441314 -0.094931 0.054824
GCCAAG 0.203189 -0.516160 -0.228949 -0.321552 -0.730704 -0.299616 -0.240233 -0.682322 0.320750 -0.185878 -0.475673 -1.036561 0.757961 0.678927 -0.114191 -0.718587
ACCCAG -0.349411 -0.189451 0.440635 0.256791 -0.450502 0.047703 -0.035604 0.155190 0.423193 -0.009228 -0.143631 -0.835591 0.817303 0.368224 -0.164579 -0.393592
CTCTTC 0.090604 0.324863 -0.214070 0.695439 -0.636655 0.724195 -0.423292 -0.324768 -0.109978 -0.216686 0.692889 0.101325 1.340146 0.552329 -0.990911 -0.199338
CCTGAA 0.432709 -0.750056 0.192376 0.495205 0.024226 -0.526474 1.074325 -0.514571 0.361650 0.890449 0.061284 0.261870 -0.070512 -0.037839 0.216267 -0.198994
AGCCCC -0.385591 0.441107 0.700664 0.366069 -0.689738 0.045999 0.353612 0.835266 0.170362 -0.388595 0.704799 -1.603938 0.933467 0.439632 -0.243168 -0.667352
GAAGCT 0.442312 -0.883727 0.122143 0.050779 0.157070 -0.918567 0.887603 -0.693447 0.174405 0.636208 -0.136578 -0.042537 -0.284149 -0.330365 0.480483 -0.108568
TCTTCC 0.408825 0.110086 0.769160 0.315940 0.242447 1.288278 -0.132427 1.071928 -0.382083 0.083796 0.368123 -0.311664 0.676675 -0.366676 0.179147 -0.679030
CCCCCA -0.400827 -0.530251 0.489380 0.706146 -0.018479 0.189498 0.447946 0.585222 0.318211 0.653646 0.677071 -1.236865 0.680701 0.048185 -0.348935 -0.302377
AGATGG -0.065212 0.267411 0.770483 -0.611752 -0.080583 -0.369300 0.448650 1.155317 -0.153077 -0.310095 -0.297750 -0.125723 -0.046042 0.140520 0.055758 0.934427
GGAGCA 0.036480 -0.755925 0.358180 -0.022289 0.367834 -1.364881 1.133590 -0.277988 0.657726 0.404859 0.263464 -0.730687 -0.181752 -0.763029 0.567008 0.258609
CTCCCT -0.159010 -0.205368 0.155855 1.252509 0.074366 0.340569 0.693924 0.131567 -0.041985 0.626278 1.151947 -0.342558 1.013088 -0.357828 -0.892385 -0.278957
TTGGAA 0.617038 -0.743428 0.082251 -0.472989 0.002739 0.219494 -0.081265 -0.255280 -0.368073 0.322572 -1.051164 0.724040 0.164095 0.024732 -0.080942 0.082089
AGGTGG -0.263323 0.161814 0.599803 -1.112644 -0.176989 -0.499782 0.355944 1.465817 -0.356011 -0.358688 -0.310402 -1.031228 0.348861 -0.112446 -0.321502 0.780018
GAAATG 0.358638 -0.909909 0.055786 -0.399689 0.016865 -0.102338 -0.034176 -0.346032 0.115034 0.362917 -1.283276 0.462248 -0.029892 0.183796 0.094585 0.136821
TGCCCA -0.649958 0.168293 0.386900 0.132059 0.267016 0.089284 0.455943 1.091636 0.193386 0.500567 0.678906 -0.582058 0.614197 -0.107062 0.127818 0.288203
TCTCCA 0.212480 -0.553669 0.815724 0.463930 0.445043 0.973769 0.186254 0.905973 -0.175322 0.583695 0.186763 -0.506823 0.515625 -0.394037 0.209204 -0.383174
TTCTCC 0.365822 0.610740 0.263996 0.520303 -0.576980 1.003818 -0.337537 0.321748 -0.256883 -0.229861 0.630106 0.159186 1.139612 0.411410 -0.472817 -0.594995
TCCTGA 0.188918 0.360201 1.048332 0.340242 0.158505 0.404070 0.337786 1.062334 -0.025042 -0.243980 0.347665 0.014910 0.581927 -0.255418 0.160732 0.446943
GGAGGG -0.016262 0.081138 -0.018660 -0.693812 -0.312275 -1.590437 1.158619 0.029326 -0.185085 0.054060 0.349569 -0.879486 0.413125 -0.835011 -0.231647 0.114384
TCAGCA 0.029272 -0.578639 0.750023 0.142737 0.531105 0.398959 0.098952 0.652945 0.545914 0.384525 -0.424519 -0.640952 0.123848 -0.440064 0.676664 0.046273
TTCTCT 0.458620 0.254966 0.143947 0.504963 -0.009439 0.990691 -0.223110 0.279983 -0.447610 0.304033 0.220320 0.752139 0.896424 -0.454885 -0.233767 -0.423180
TTTGGA 0.635577 0.205910 0.153737 -0.276536 -0.170218 -0.269292 0.454620 -0.150131 0.001130 0.111346 -0.446283 1.154470 0.085716 -0.382898 0.368003 0.005231
CTTCCA -0.201583 -0.682099 0.372974 0.824753 0.279070 0.051372 0.780012 0.242074 -0.045700 0.874969 0.524633 0.136438 0.286686 -0.138703 -0.467975 0.223993
TCAGCC -0.103868 -0.045701 0.653862 0.393162 0.049108 0.456330 0.037405 0.579659 0.188528 0.089496 0.268235 -0.999471 0.691901 -0.136944 0.405566 -0.669963
CTGTGA -0.308754 -0.166239 0.164322 -0.073100 0.205161 -0.148995 0.307726 0.656838 0.148481 0.131131 -0.020805 0.276088 0.438518 -0.152673 -0.366575 1.198406
GGCAGA 0.004800 0.317541 0.540135 -0.443750 -0.413012 -1.247400 1.067536 0.395159 0.330999 -0.377192 -0.103608 -0.332682 0.038204 -0.232911 0.467435 0.231053
CACAGC -0.789866 0.584335 0.363760 0.457940 -0.527957 -0.375733 0.332132 0.379129 0.615588 -0.091890 0.316790 -0.424985 0.682557 0.769862 -0.096026 0.027951
CAGCAC -0.863371 0.207182 -0.079539 0.392464 -0.521771 -0.533150 0.283581 -0.019227 0.543609 0.210143 0.393069 -0.383260 0.742456 0.836961 -0.634828 0.344502
AAAAAC 0.194254 0.017028 0.451818 0.164809 -0.511610 0.189782 -0.122556 -0.082553 0.184953 -0.676893 -1.495989 1.126389 -0.361915 0.846287 0.154740 -0.026786
TGCCAG -0.498460 0.341728 -0.016968 -0.035310 -0.255998 -0.318092 0.231740 0.402385 0.265382 0.177774 0.371525 -0.326643 0.711161 0.431518 -0.287824 0.278194
TCTGCC 0.116312 -0.081413 0.316568 0.546250 0.077742 0.735376 0.051245 0.413428 0.035414 0.319308 0.534710 -0.719259 0.975173 -0.473994 0.106616 -0.858196
GGGGAG 0.243374 -0.174097 -0.590106 -1.099204 -0.784884 -0.990039 0.624777 -0.316199 -0.094069 0.077183 -0.217494 -1.210111 0.775201 -0.095956 -0.559825 -0.283050
CTGAGA -0.091607 -0.345974 0.435594 -0.416704 -0.364316 -0.073048 0.094995 0.564271 0.041923 -0.231638 -0.644994 -0.469084 0.423857 0.227588 -0.256423 0.411063
TCCCCA -0.051625 -0.278823 0.798490 0.640769 0.040809 0.716617 0.197551 0.831765 0.004648 0.352547 0.440399 -0.900143 0.748259 -0.195087 -0.115794 -0.481824
TTCAGA 0.423999 0.348827 0.702958 0.053589 -0.391400 0.124401 0.100447 0.396172 -0.023394 -0.411551 -0.589120 0.870918 0.188213 0.208361 0.015451 0.370932
CTTCCC -0.262442 -0.204398 0.294441 1.076467 0.055672 0.264180 0.498745 0.244958 -0.183443 0.426910 1.023517 -0.153705 0.693687 -0.172022 -0.781595 -0.142863
CCAGTG -0.442280 -0.751405 0.069484 -0.054690 0.325518 -0.075067 -0.083486 0.269305 0.374446 0.639866 -0.163576 -0.701814 0.718822 -0.299966 -0.227992 0.382842
CTGAGC -0.162100 0.182988 -0.005156 -0.375178 -0.592718 -0.019676 -0.133451 0.373848 0.076335 -0.346902 0.003185 -1.156343 1.030770 0.439564 -0.432438 -0.264278
CAGGCA -0.403845 -0.821777 0.089703 0.021231 0.011274 -0.241366 0.291747 0.145435 0.510423 0.169057 -0.441191 -0.992037 0.510419 -0.195715 -0.260010 0.146283
ATTTCT 0.430494 -0.051796 0.106143 0.218564 0.199163 0.942590 -0.016269 0.146617 -0.268164 0.336730 -0.585758 1.267349 0.299518 -0.673772 0.232772 -0.475795
GAGGCT 0.408191 -0.850200 -0.362826 -0.518308 -0.076667 -0.731882 0.569124 -0.499325 0.087621 0.201644 -0.331594 -1.125452 0.528566 -0.454412 0.006085 -0.376083
TGTGAA 0.101261 0.176531 -0.062276 -0.229394 0.038585 -0.493524 0.477532 -0.180903 0.201411 0.563483 -0.270234 1.149397 -0.032867 -0.035385 0.511994 0.232005
TGAAGG -0.092978 0.344454 0.973780 -0.638680 -0.106018 -0.336392 0.318576 1.420225 -0.004599 -0.617562 -0.375823 -0.129077 0.051464 0.105305 0.102053 1.095065
CTGTGT -0.561095 0.165735 -0.553468 -0.430809 0.240624 0.082887 -0.134438 0.320079 0.071282 0.588994 0.212203 0.222755 0.951658 -0.435458 -0.364005 0.605748
CAGGGA 0.008245 -0.259387 0.301878 -0.141550 -0.197111 -0.865085 0.828531 0.016077 0.311801 0.233994 -0.048603 -0.556160 0.367505 -0.110354 -0.275091 0.335864
GGCCTC -0.259481 0.445414 0.016034 0.529592 -0.434166 -0.395692 0.508736 -0.072776 0.136126 -0.014266 1.246467 -0.847006 1.196031 0.137863 -0.588011 -0.233080
GAGATG 0.044196 -0.676094 -0.436930 -0.888556 -0.386119 -0.134045 -0.510746 -0.445002 0.146060 0.032138 -1.022114 -0.489994 0.655392 0.324257 -0.352504 0.062684
TTCCTT 0.290014 0.106565 -0.177455 0.675107 -0.039824 0.886428 -0.015229 -0.007459 -0.400534 0.118081 0.196557 1.149971 0.792589 -0.320340 -0.659388 -0.079379
GGGAGA 0.018494 0.145694 0.690393 -0.880964 -0.305204 -0.986900 0.705439 0.802334 -0.180148 -0.323808 -0.271879 -0.589649 0.016625 -0.286291 0.112401 0.409695
AAACAG 0.129344 -0.523202 0.382618 0.044238 -0.405378 -0.145478 0.041403 -0.265540 0.115102 -0.096169 -1.257331 0.510293 -0.089943 0.763565 -0.301242 0.187038
CACCAG -0.679385 -0.121186 -0.075418 0.547381 -0.436299 -0.495680 0.239198 -0.080154 0.629306 0.461170 0.314965 -0.331139 0.822070 0.834787 -0.602546 0.388004
TGGCCT -0.285252 -0.115052 0.310091 0.126761 0.346090 0.170926 0.377676 0.972901 0.038709 0.389004 0.577333 -0.681480 0.780572 -0.568386 -0.284288 0.401831
TTTTGA 0.452613 0.489549 -0.035884 -0.040533 0.289888 0.282517 0.369611 0.386407 -0.161732 -0.171521 -0.440724 1.776366 0.029411 -0.526406 0.127188 0.953718
AAGACA 0.020026 -0.676536 0.434158 -0.267575 -0.223574 0.121195 -0.191239 0.196033 0.322449 -0.098370 -1.374462 0.006908 -0.010373 0.384671 0.125259 0.252608
CTTCTC -0.159725 -0.234666 0.016042 1.112991 0.085711 0.274817 0.526264 -0.049355 -0.231971 0.426705 0.843362 0.350810 0.828787 0.031026 -0.848416 0.207543
CCTTCT 0.190430 -0.367032 0.524352 0.568782 0.406758 0.889907 0.223900 0.681735 -0.138996 0.771000 0.501366 -0.327439 0.606374 -0.601714 -0.014818 -0.447237
ACCCTG -0.404853 -0.249383 0.155880 0.061725 -0.475883 0.220835 -0.440919 0.067181 0.498173 0.019535 -0.144617 -1.029774 1.091169 0.407330 -0.391606 -0.372683
TGCCTC -0.396168 0.635378 0.272195 0.641542 -0.209692 0.437975 0.280352 0.634102 -0.080971 0.002844 1.131249 -0.099589 1.014041 0.429688 -0.545764 -0.023682
CCACTG -0.296133 -0.699017 0.091566 0.155712 0.030394 0.136238 0.120888 0.425123 0.331648 0.620582 -0.011819 -0.756160 0.717823 0.214774 -0.562153 0.254167
AAAGAT 0.944495 -0.505559 0.274099 -0.260349 -0.285466 -0.265415 0.414745 -0.636838 0.003717 0.725023 -1.193287 1.057318 -0.305618 0.351720 0.644768 -0.511823
CTCTCC 0.018217 0.348998 0.404132 1.000699 -0.512690 0.814532 -0.057723 0.282213 -0.128564 -0.064965 0.957024 -0.470993 1.240791 0.233282 -0.644748 -0.645326
GTGAAG 0.159750 -0.643265 -0.484780 -0.858664 -0.449671 -0.166054 -0.712761 -0.691007 0.203708 -0.041020 -1.099101 -0.598418 0.643142 0.426335 -0.294393 -0.089677
AGAACA 0.059991 -0.114874 1.010094 -0.227606 -0.001912 -0.040990 0.096027 0.843994 0.424677 -0.297783 -0.933526 0.031820 -0.293076 0.048280 0.812488 0.494818
CTCAGA 0.085579 0.014610 0.686040 0.460617 -0.329171 -0.257898 0.611544 0.354903 0.059916 -0.263521 -0.018114 0.168229 0.353528 0.237052 -0.294320 0.460093
TGAAAT 0.172707 0.404773 0.440648 0.040575 -0.036912 0.129671 0.319613 0.454326 0.203056 -0.268598 -0.780932 1.563561 -0.311184 -0.099026 0.497760 0.612549
TGGATG -0.333570 -0.267219 0.179378 -0.858113 0.112719 0.283412 -0.705574 0.914446 0.129550 -0.109561 -0.775656 -0.562684 0.579216 0.057927 -0.132738 0.836450
CTCAGG -0.200893 -0.000593 0.392355 0.189660 -0.450621 -0.164342 0.384861 0.571283 -0.157527 -0.156877 0.132090 -0.544153 0.754782 0.114369 -0.805387 0.283830
TTCTGG 0.043003 0.307961 0.154969 -0.214449 -0.266652 0.266964 -0.185782 0.412335 -0.209564 -0.133272 -0.033776 0.281899 0.866556 -0.010306 -0.329957 0.409000
AAAAGG 0.110049 -0.172291 0.707176 -0.505811 -0.578511 -0.203154 0.397282 0.526061 -0.306909 -0.540375 -1.492004 0.531196 -0.194300 0.477888 -0.160187 0.291803
GAGAGG 0.168090 -0.289761 0.001938 -1.058358 -0.789406 -0.918667 0.477307 0.159404 -0.229111 -0.240722 -0.702080 -1.012371 0.305978 0.413883 -0.555140 0.057652
TTCCTC 0.059013 0.372910 -0.048316 0.837479 -0.495265 0.789596 -0.302776 -0.071461 -0.077937 -0.254739 0.580974 0.279642 1.257713 0.331148 -0.855943 -0.160274
CTCCCC -0.418691 0.097205 0.307909 1.269975 -0.389466 0.487955 0.334227 0.236367 0.014808 -0.010948 1.190158 -0.877341 1.099141 0.196661 -1.024844 -0.408255
TCCTCA 0.258961 0.029707 0.867548 0.374702 0.197739 0.952825 -0.050926 1.000801 0.031343 0.221206 0.124281 -0.627909 0.557319 -0.214132 0.515063 -0.508011
TCTGCA 0.217393 -0.481958 0.334908 0.138418 0.559820 0.322691 0.218231 0.322191 0.148693 0.345234 0.015010 -0.289941 0.400509 -0.692516 0.404611 -0.411740
AGCCCA -0.321918 -0.099146 0.741965 0.140557 -0.184111 -0.141914 0.735183 0.882300 0.250422 0.033451 0.124551 -1.044148 0.305011 0.181839 0.170155 -0.169692
GTGGCC -0.167346 -0.141883 -0.674352 -0.548485 -0.366727 -0.170582 -0.568478 -0.545377 0.636681 0.175391 0.151671 -1.453306 1.422729 -0.007645 -0.121997 -0.566918
CCAAGG -0.452062 -0.304254 0.988536 -0.436487 -0.089660 -0.102692 0.342053 1.428445 -0.120226 -0.073509 -0.397561 -1.056945 0.187733 0.096571 -0.187498 0.388930
AAGCCA 0.091907 -0.590173 0.675594 -0.066183 -0.284622 0.078784 0.070628 0.500224 0.106658 0.155083 -0.801487 -0.317978 0.273257 0.502004 -0.186159 0.187206
AGGCCA -0.405107 -0.248698 0.917034 -0.436570 -0.071101 -0.310272 0.496750 1.414877 -0.098696 -0.026785 -0.271969 -1.153520 0.317344 0.054661 -0.232550 0.455532
TCAGGA 0.241246 -0.099216 0.685761 -0.098592 -0.026124 -0.547021 0.798603 0.376301 0.302756 0.188798 -0.223325 0.036199 0.157957 -0.258476 0.608151 0.201936
TTTTCC 0.283566 0.357184 0.100063 0.295140 0.019878 1.147239 -0.088696 0.459874 -0.627662 0.049021 -0.117763 0.928892 0.511513 -0.426871 -0.165367 -0.394607
GGCCCC -0.424915 0.383909 0.033054 0.169463 -0.449738 -0.662223 0.693091 0.218032 0.281466 0.097173 1.236156 -1.608591 0.882300 -0.147557 -0.284632 -0.434248
GAGGTG 0.316741 -0.543438 -0.870532 -1.177069 -0.544036 -0.722549 -0.364399 -0.920169 0.333240 0.142079 -0.507442 -1.180889 0.996706 0.089355 -0.324038 -0.229202
TCAGAG 0.528952 -0.459808 0.278313 -0.183494 -0.313972 0.034836 0.317736 0.039659 0.136313 0.338685 -0.708800 -0.278660 0.490594 0.305148 0.030028 -0.156279
CTGTGC -0.648827 0.488200 -0.352462 -0.343234 0.026440 0.005724 -0.099467 0.693785 0.161671 0.210093 0.566550 -0.553273 0.902780 0.209952 -0.383360 0.457467
GCTGAA 0.386427 -0.960667 0.143927 0.118017 0.193348 -0.978477 0.965398 -0.903550 0.352788 0.690799 -0.197872 0.125120 -0.214504 -0.187933 0.501205 -0.313213
TTTCCA 0.093082 -0.345488 0.128385 0.203064 0.286619 0.534579 0.078225 0.317146 -0.237459 0.494949 -0.306642 0.777581 0.170235 -0.286233 -0.118039 -0.013650
AGGATG -0.280413 -0.310857 0.349063 -0.842335 -0.189229 -0.051468 -0.438152 0.876874 -0.067564 -0.319563 -0.976305 -0.828330 0.436066 0.049557 -0.288652 0.814626
ACCAGC -0.287995 0.453622 0.852466 0.241806 -0.553367 0.281802 -0.249161 0.607676 0.415184 -0.804154 -0.126931 -1.092947 0.628529 0.466195 0.462697 -0.661919
TTCTGT -0.016640 0.779601 -0.286410 -0.126419 0.054021 0.532067 -0.263806 0.233190 -0.271545 0.236133 0.029621 1.255065 0.913130 -0.329663 -0.190115 0.199065
TTGCTG 0.128877 -0.538460 -0.406540 -0.550333 0.137973 0.553025 -0.561000 0.145064 -0.369373 0.154825 -0.493191 -0.067090 0.915797 -0.075796 -0.700385 0.494733
CCAAAG 0.091693 -0.643703 0.698487 0.072760 -0.229225 0.419219 0.103841 0.663080 -0.012895 0.157851 -0.675249 -0.249772 0.263096 0.550226 -0.275962 0.106861
GAGCCA 0.115786 -0.548827 0.064029 -0.175293 -0.182495 -0.368130 0.668586 0.216613 0.164807 0.604421 -0.145961 -0.961197 0.314774 0.230807 -0.168146 -0.072740
CTGGCA -0.269375 -0.684630 -0.280191 -0.183960 -0.010246 -0.195380 0.012634 -0.094364 0.394374 0.389462 -0.200157 -0.790050 0.671614 -0.063365 -0.260055 0.148292
AGGGAG 0.053460 -0.156933 0.057516 -0.879275 -0.785614 -0.930903 0.520823 0.269872 -0.289965 -0.323887 -0.723642 -0.931756 0.428927 0.125767 -0.679767 0.048883
AGACAG 0.001559 -0.100710 0.622493 -0.228496 -0.330659 -0.437909 0.458987 0.556215 -0.012613 -0.244569 -0.522186 -0.035905 0.176328 0.350842 -0.193082 0.601682
CAGGGC -0.273696 0.274153 -0.354139 -0.331046 -0.711606 -0.790220 0.430729 0.006380 0.340538 0.025254 0.476537 -1.203193 1.106441 0.138090 -0.392050 -0.197885
GGTGGA 0.214621 0.164140 0.180888 -0.246478 0.080843 -1.767969 1.373365 -0.358658 0.117167 0.448138 0.437882 -0.025933 -0.162596 -0.884896 0.517246 0.091386
GAAGAC 0.796636 -0.477694 0.106475 -0.134063 -0.563493 -0.750703 0.597101 -0.887006 0.474340 0.665179 -0.556768 0.067639 -0.030780 0.709132 0.314418 -0.380620
TGGACA -0.356676 -0.122338 0.696673 -0.429474 0.188835 0.176077 -0.163247 1.203684 0.280620 -0.032375 -0.524467 -0.652894 0.259737 -0.129029 0.399357 0.697398
CTCTGT -0.319085 0.464400 -0.152753 0.377779 0.119807 0.139046 0.225576 0.187046 0.012499 0.379621 0.723611 0.512872 1.159940 -0.369786 -0.397615 0.352253
TTTCTC 0.086989 0.187708 -0.022352 0.654117 -0.052903 0.950701 -0.097441 0.136501 -0.485698 0.099233 0.099220 0.936590 0.759708 -0.332314 -0.756092 -0.065713
GTTTTT 0.522811 0.168393 -0.462169 -0.224502 0.297470 0.705387 -0.008900 -0.215818 -0.724601 0.346917 -0.433525 1.845558 0.101343 -1.117797 -0.089979 -0.230620
GGAAGC 0.113687 0.238815 0.762921 -0.382489 -0.258294 -0.849908 0.892475 0.716749 0.046169 -0.438023 0.064606 -0.560068 -0.059047 -0.050360 0.527641 0.130547
CATGGA -0.139555 0.024367 0.192718 0.292255 0.130818 -1.044070 1.181688 -0.157354 0.486954 0.606567 0.371958 0.555745 -0.132151 0.059663 0.185497 0.623275
CACACA -1.167024 -0.046562 0.051335 0.497031 0.046060 -0.050340 -0.347524 0.249298 1.158959 0.490515 -0.477014 -0.009269 0.102199 0.279486 0.413375 0.145229
TCCTCT 0.460221 0.144414 0.521813 0.654039 0.204560 1.239001 0.076917 0.767229 -0.389673 0.332841 0.513848 -0.325005 0.931980 -0.435775 0.061134 -0.852547
CACTGC -0.764440 0.845752 0.152827 0.298672 -0.115910 -0.036127 0.205153 0.682733 0.610605 0.095068 0.784600 -0.299592 0.880640 0.436036 0.095186 0.239879
TTTCAG 0.065625 -0.244876 -0.165151 0.020429 -0.146633 0.284637 0.009946 0.015236 -0.170380 0.316286 -0.704993 0.966308 0.327694 0.056308 -0.438094 0.169631
GGGAAA 0.248056 -0.030111 0.044467 -0.663876 -0.474647 -0.544309 0.551916 0.047592 -0.287546 -0.057661 -0.915708 0.231763 0.099381 -0.197455 -0.046646 -0.063064
AGCAAA 0.341369 0.152002 0.544593 0.030293 -0.529436 -0.148901 0.301714 0.135713 0.186196 -0.506559 -1.061072 0.596758 -0.275837 0.702169 0.409646 -0.267031
TCTGAA 0.756851 -0.448913 0.450875 0.227250 0.009901 -0.010358 0.622661 -0.299151 -0.012931 0.497596 -0.566905 0.716784 -0.000744 -0.104343 0.465953 -0.514802
GCCCCA -0.362512 -0.510394 0.473061 0.471410 0.071136 -0.043300 0.573738 0.382553 0.535934 0.519343 0.608513 -1.557483 0.646494 -0.343615 -0.152354 -0.456654
GAAACA 0.296577 -0.704182 0.497633 0.045124 0.066183 -0.218564 0.333681 -0.127383 0.539117 0.307402 -1.202563 0.393830 -0.456086 0.083535 0.708836 -0.057718
TCTGGG 0.206069 0.101821 0.148318 -0.304059 -0.033350 -0.141734 0.560547 0.463920 -0.380403 0.247367 0.205158 -0.509940 0.791558 -0.708761 -0.150056 -0.305600
ACCTGC -0.777745 0.773029 0.740654 -0.079349 -0.078001 0.507608 -0.424464 1.270864 0.329517 -0.342050 0.588316 -1.117704 0.788619 0.183728 0.422796 -0.210343
AGAGCA -0.076994 -0.422019 0.811754 -0.117649 0.024724 -0.568591 0.552744 0.510241 0.375992 -0.249419 -0.552966 -0.430349 -0.185817 -0.141972 0.650373 0.331204
CCCTGA -0.362371 0.133929 0.807759 0.435491 0.023030 -0.247309 0.658890 0.981852 0.255762 0.034269 0.613485 -0.464794 0.385413 -0.127493 -0.185268 0.670032
CTCTCT 0.197460 0.000443 0.154257 0.927462 -0.008249 0.853255 0.168150 0.180402 -0.301157 0.362459 0.590451 0.154073 1.031325 -0.353451 -0.573239 -0.432899
GACCTG 0.302138 -0.254087 -0.651601 -0.391148 -0.765105 -0.346388 -0.146731 -0.870438 0.402602 0.491713 0.087502 -0.844376 1.109734 0.944792 -0.337758 -0.493066
GTGGAA 0.343122 -0.895408 -0.294945 -0.556334 -0.075533 -0.523306 -0.066890 -0.827551 0.289847 0.531409 -0.862974 -0.017405 0.266103 -0.064830 0.170752 0.000059
CCCCAC -0.924396 0.286802 0.206230 1.118143 -0.286932 0.077693 0.444302 0.428017 0.522082 0.435223 0.969201 -0.830504 0.891354 0.387175 -0.630609 -0.138197
ACATTT -0.019986 -0.161676 -0.028003 -0.001404 0.267998 0.855349 -0.257933 0.280687 0.192192 0.310439 -1.143214 1.195117 -0.047178 -0.310754 0.401412 0.068842
AACAGA 0.128236 0.222460 0.929872 0.073672 -0.559756 -0.331694 0.198694 0.351283 0.227070 -0.743828 -1.039638 0.693946 -0.237473 0.709660 0.249733 0.283072
TGAAAG 0.242168 -0.025984 0.611059 -0.258092 -0.228151 -0.083864 0.179630 0.727537 0.067561 -0.629140 -1.006714 0.659887 -0.188698 0.269454 -0.033835 1.114836
GAGCCC 0.150774 -0.269167 -0.018794 -0.060995 -0.667095 -0.316321 0.410092 -0.071332 0.272304 0.070001 0.409624 -1.594193 0.832636 0.261767 -0.504442 -0.397896
TCTCAG 0.166299 -0.501592 0.438956 0.289427 0.105445 0.381733 0.261508 0.286045 -0.122502 0.369082 -0.095026 -0.173904 0.637783 -0.170141 -0.164938 -0.283216
AAAACT 0.320484 -0.300602 0.460701 0.211968 -0.048330 0.326638 0.125599 0.056502 0.202624 -0.108890 -1.266395 0.998546 -0.363035 0.005828 0.642636 -0.232937
GATGGA 0.791686 -0.444047 0.176780 -0.437175 -0.070750 -1.093098 0.962373 -0.638955 0.178848 0.844859 -0.140148 0.324827 -0.134262 -0.167780 0.714725 -0.150933
GTGGCT -0.035198 -0.450958 -0.725925 -0.585629 0.224362 -0.343615 -0.016119 -0.476023 0.533792 0.419536 -0.043286 -0.780069 0.908000 -0.758389 0.243184 -0.319575
TGCTTT -0.109242 0.743255 -0.331120 -0.200259 0.052369 0.541690 0.064349 0.550029 -0.312299 0.099659 -0.059271 1.224077 0.545820 -0.380563 0.115343 0.029206
GAGGAC 0.658896 -0.247473 -0.709220 -0.646710 -0.955281 -0.634093 0.042722 -0.880065 0.568802 0.463079 -0.308853 -1.096811 0.698328 0.925377 -0.189316 -0.644507
GAAAAC 0.450141 -0.282610 0.522227 0.129398 -0.424459 -0.226271 0.172896 -0.461390 0.225247 -0.208495 -1.158595 0.716628 -0.374001 0.820945 0.306254 -0.157927
GAAGCC 0.322272 -0.611781 0.255159 0.217869 -0.287088 -0.676173 0.621943 -0.527509 0.321157 0.227084 -0.170401 -0.521269 0.148829 0.346476 0.011365 -0.248148
GTGCAG -0.275414 -0.346330 -0.730134 -0.659222 -0.274065 -0.405458 -0.383160 -0.511824 0.415971 0.324985 -0.054360 -0.902551 0.995087 0.212561 -0.426734 0.203432
ATGATG -0.313445 -0.825574 -0.144834 -0.763155 0.067413 0.570575 -1.170623 0.030091 0.383271 -0.195122 -1.455493 -0.253307 0.521556 0.302006 -0.215627 0.875104
ATCCTG 0.056746 -0.179575 -0.302476 -0.059929 -0.694090 0.185765 -0.885398 -0.805591 0.391120 -0.389803 -0.154870 -0.328169 1.334894 0.636037 -0.479709 0.038885
TTTGTG -0.055611 0.077635 -0.910249 -0.622342 -0.001071 0.385883 -0.636477 -0.428552 -0.057839 0.403388 -0.563338 0.718603 0.810932 -0.510952 -0.143753 -0.191637
TCTGCT 0.286274 -0.416894 0.231601 0.315148 0.466168 0.541318 0.388356 0.155212 0.033870 0.596585 0.327331 -0.120305 0.666257 -0.930773 0.272872 -0.764729
AAATTA -0.111982 -0.263956 0.014449 -0.041582 0.079033 0.438116 0.052014 0.060911 -0.425363 -0.107859 -1.638917 1.652897 -0.508084 0.148232 -0.134688 -0.097104
AGAATG -0.075890 -0.228831 0.514034 -0.567023 -0.007326 0.043635 -0.117194 0.627436 0.202409 -0.434424 -1.145400 0.197029 0.024257 0.209019 0.153779 0.721094
AGGACA -0.337821 -0.189229 0.892561 -0.520464 -0.066718 -0.012502 0.043622 1.199571 0.162680 -0.261645 -0.828413 -0.835781 0.017867 -0.054375 0.214429 0.459825
AGAAGT 0.126207 0.381635 0.904185 -0.477207 -0.173741 -0.195646 0.540451 0.959440 -0.243917 -0.490194 -0.711757 0.348009 -0.318512 0.091017 0.714095 0.012671
AAATGG -0.006892 -0.014497 0.369535 -0.367332 -0.273503 -0.071065 0.157622 0.479423 -0.076961 -0.241311 -1.205601 0.841210 0.005042 0.255513 -0.025201 0.639777
CTTCTT -0.090827 -0.349018 -0.084501 0.866112 0.275806 0.348656 0.644797 -0.027177 -0.397073 0.793702 0.601185 1.089735 0.353050 -0.241107 -0.610322 0.133737
TGGGCA -0.429884 -0.424770 0.318458 -0.472583 0.427846 -0.102912 0.264528 0.882696 0.236128 0.125893 -0.161455 -1.053649 0.420056 -0.525312 0.159871 0.581402
AAAGTG 0.178844 -0.616096 -0.364357 -0.340307 -0.121226 0.006733 -0.247981 -0.501227 0.228005 0.077154 -1.090005 0.325564 0.334174 0.027479 -0.086014 0.125554
CCCAAG 0.238467 -0.292606 0.154137 0.242332 -0.795694 0.104540 -0.000311 -0.133929 0.113601 -0.059864 -0.237395 -0.803946 0.836193 0.570016 -0.621217 -0.386799
ACTGGA 0.423320 -0.263086 0.697800 -0.031110 0.083799 -0.415101 0.598489 0.152502 0.503671 0.028559 -0.279231 0.111071 -0.184785 -0.355980 0.777845 -0.047087
GGCTGA -0.145818 0.466826 0.361626 -0.379977 -0.025604 -1.196256 1.048510 0.541804 0.314107 -0.231839 0.524582 -0.268908 0.343053 -0.618472 0.396562 0.672565
GGTGGC -0.423197 0.809102 -0.342687 -0.366865 -0.162559 -1.514596 1.134529 -0.171648 -0.094102 0.155816 0.695474 -0.453183 0.338724 -0.653929 0.116447 -0.416895
CTGCTT -0.147100 -0.300195 -0.425009 0.379760 0.146741 0.282597 0.231940 -0.112341 -0.280549 0.432258 0.359544 0.248597 0.768958 0.058995 -0.910979 0.202130
TTGGAG 0.476446 -0.751796 -0.384117 -0.916909 -0.219919 0.072887 -0.215078 -0.231434 -0.368386 0.035879 -0.894440 -0.231146 0.743141 0.082196 -0.589816 0.192924
TCATTT 0.311241 -0.120156 -0.039337 0.130956 0.330033 1.065184 -0.064377 0.405300 -0.300967 0.406185 -0.716974 1.376213 0.306091 -0.531017 0.157270 -0.012165
GGGGCC -0.259404 0.049129 -0.157072 -0.436144 -0.431216 -0.677780 0.461051 0.088058 0.090659 -0.074014 0.680827 -1.866981 0.990209 -0.551475 -0.272444 -0.432032
AATGGA 0.550417 -0.111268 0.364091 -0.155623 -0.294175 -0.433487 0.486924 -0.209880 0.253728 0.086905 -0.870020 0.927874 -0.235745 -0.039059 0.704993 0.005604
GCTCAG -0.187035 -0.752216 0.143223 0.036531 0.076843 -0.495348 0.452108 -0.255773 0.295608 0.428535 0.104702 -0.804421 0.602232 -0.166967 -0.161735 -0.123886
TCCTTC 0.383569 0.549788 0.266222 0.578648 -0.435005 0.975131 -0.363763 0.244097 -0.246815 -0.144458 0.457935 0.062575 1.185709 0.320341 -0.364932 -0.559026
AAACTG 0.000395 -0.593160 -0.012263 -0.135457 -0.335898 0.119988 -0.124130 -0.277918 0.028629 0.017604 -1.144229 0.544430 0.115542 0.500905 -0.402850 0.124121
AGCCCT -0.130810 0.068556 0.541438 0.379325 -0.171635 -0.024586 0.681946 0.585819 0.331925 0.180192 0.544133 -0.868945 0.531515 -0.211080 0.135623 -0.399921
ACTGCA -0.119770 -0.823746 0.620573 0.284708 0.542704 0.262178 0.106079 0.060313 0.499708 -0.005935 -0.179750 -0.500137 0.028512 -0.723159 0.724382 -0.371364
ATTTTC 0.219398 0.298443 -0.091896 0.188987 -0.142937 0.955531 -0.503158 -0.007813 -0.412227 -0.185397 -0.637444 1.665027 0.436235 -0.132639 -0.169909 -0.019851
TGCAGT -0.297273 0.828312 0.264165 -0.526918 0.020804 -0.054807 0.326295 0.886878 -0.179116 -0.269801 0.098940 0.035111 0.380135 -0.066749 0.476251 -0.152877
TGTGGC -0.438642 1.024818 -0.303159 -0.424310 0.001049 -0.637900 0.592439 0.420115 0.320956 0.388280 0.780731 0.169527 0.749902 -0.216699 0.318238 0.180966
CTTTGG -0.080160 -0.230604 -0.010915 -0.084941 0.332879 -0.201513 0.557704 0.361166 -0.380877 0.326135 0.030483 0.427958 0.444266 -0.224435 -0.591774 0.748532
TTGAAG 0.257346 -0.749122 0.082011 -0.643705 -0.143171 0.358217 -0.525175 0.105231 -0.409548 -0.224515 -1.401781 0.352918 0.225110 0.231653 -0.573819 0.443225
TTCTGA 0.225108 0.517785 0.480881 0.225603 -0.011905 0.242449 0.191702 0.648511 -0.028363 -0.369005 -0.096445 1.153617 0.482592 -0.104794 -0.099743 0.863999
GAGGCA 0.266798 -0.995816 -0.053296 -0.697568 -0.106858 -0.879628 0.527695 -0.477932 0.378574 0.211927 -0.772453 -1.111500 0.297384 -0.181336 0.064746 -0.107215
TTCAAA 0.368148 0.079481 0.218640 0.224089 -0.480346 0.490992 -0.218509 -0.186740 -0.002818 -0.189052 -0.927529 1.325131 0.209565 0.400189 0.142495 -0.119337
GGAAAT 0.547608 -0.082918 0.304257 -0.158721 -0.121945 -0.503556 0.635782 -0.179070 0.168061 -0.026918 -0.746474 0.968748 -0.358343 -0.266897 0.670391 -0.036749
TGCCCT -0.483688 0.308257 0.283770 0.320615 0.224238 0.040327 0.540167 0.745325 0.187016 0.556463 0.916823 -0.398526 0.712597 -0.275676 -0.010015 0.065543
AGAGGC -0.087265 0.461096 0.626818 -0.474041 -0.521575 -1.066542 0.947096 0.597897 0.259038 -0.479910 0.051120 -0.517094 0.262601 -0.083177 0.317703 0.262343
CAGCTT -0.096466 -0.487872 -0.037201 0.520128 -0.057954 -0.174837 0.465726 -0.152041 0.018815 0.448311 0.197664 0.267926 0.465452 0.235294 -0.651736 0.187527
TGGCCC -0.587160 0.121241 0.583684 -0.015753 -0.059764 0.163340 0.172894 1.436671 0.036616 -0.033356 0.610127 -1.424004 0.916976 -0.150300 -0.336190 0.314472
ACAGTG -0.278119 -0.623845 -0.076193 -0.514174 0.002885 0.115810 -0.569218 0.030033 0.714222 0.214450 -0.861752 -0.495031 0.518113 -0.249844 0.300546 0.222167
CCTCTC -0.128379 -0.211842 0.241787 1.208345 0.068714 0.399420 0.471768 0.276694 0.029530 0.377063 1.020711 -0.377493 0.974349 -0.228342 -0.751294 -0.197895
TCTTTG 0.417084 -0.364806 0.247374 -0.348128 0.506916 1.193126 -0.380819 0.731229 -0.514904 0.273562 -0.486686 0.334905 0.623876 -0.677353 -0.115541 0.036227
ATTAAA 0.288460 -0.217941 0.184348 0.064560 -0.160629 0.325885 -0.013669 -0.346533 -0.006052 0.061859 -1.371830 1.911767 -0.373044 0.084399 0.521474 -0.276790
CTGTTT 0.118076 -0.075808 -0.621731 -0.188886 0.050561 0.561269 -0.243465 -0.078851 -0.308796 0.261008 -0.323826 0.837587 0.789044 -0.300432 -0.630133 0.075381
ACTGTG -0.181202 -0.455271 -0.202802 -0.339818 0.180522 0.366654 -0.386008 -0.126243 0.487539 0.101353 -0.620054 -0.298785 0.723271 -0.662660 0.419401 -0.265037
GGGAGC -0.257478 0.551434 0.271636 -0.803573 -0.303762 -0.885085 0.588389 0.838115 -0.337983 -0.421404 0.296451 -1.465475 0.571609 -0.294632 -0.158821 -0.251076
GGCCCA -0.291495 -0.190201 0.363883 0.098240 -0.020372 -0.786534 0.996138 0.262860 0.431330 0.468656 0.702885 -1.007387 0.455738 -0.385968 0.143589 0.023041
AAGAAC 0.207236 -0.067388 0.260495 -0.080841 -0.931190 0.053608 -0.481121 -0.378987 0.145727 -0.891973 -1.303203 0.246988 0.236172 1.272085 -0.312835 -0.174020
GCCTCA -0.022485 -0.199378 0.599417 0.445510 0.225771 0.505614 0.276361 0.628373 0.228283 0.379659 0.194908 -1.099101 0.613173 -0.481559 0.389665 -0.647243
AGAGCT 0.173728 -0.251642 0.545160 -0.056080 0.014559 -0.582435 0.744606 0.244298 0.225578 -0.023095 -0.096441 -0.243601 -0.040105 -0.425531 0.469165 -0.010982
GGCCCT -0.270033 0.031348 0.014351 0.366384 0.023172 -0.867075 1.111230 -0.012885 0.373730 0.549036 1.043680 -0.974046 0.696767 -0.608578 0.062061 -0.218870
ACAGCC -0.401487 -0.251508 0.595288 0.191081 -0.084558 0.213332 -0.231089 0.415817 0.721179 -0.109893 -0.121920 -1.254315 0.472456 0.019842 0.495134 -0.399985
GCCCCC -0.324651 -0.038250 0.325200 0.705362 -0.348310 -0.082199 0.450054 0.215478 0.367433 0.090126 1.119397 -1.804764 0.972072 0.013349 -0.346450 -0.738029
GGCTCC 0.008045 0.587684 0.159003 -0.066654 -0.478486 -0.161044 0.257373 0.210706 -0.022327 -0.168866 0.905080 -1.252160 1.074766 0.104816 -0.065796 -0.734813
AGCAAG 0.184016 -0.018098 0.347646 -0.346276 -0.895403 -0.194643 0.049079 0.121461 0.145132 -0.672213 -0.856802 -0.364238 0.362927 0.943873 -0.126551 -0.177557
CAAAAT 0.264128 -0.190403 0.285295 0.519579 -0.029489 0.079213 0.540590 -0.191904 0.349103 0.098275 -0.933671 1.461376 -0.392141 0.345754 0.357569 0.251006
GGACAG 0.008458 -0.431666 0.325194 -0.087215 -0.192158 -0.977075 0.780683 -0.044819 0.317513 0.240170 0.144923 -0.391764 0.234432 -0.020953 -0.098721 0.437618
AATATT 0.253085 -0.131773 -0.113544 -0.115349 -0.010048 0.650635 -0.236783 -0.176986 -0.214063 0.055513 -1.314561 1.982405 -0.209998 -0.158100 0.457655 -0.225916
TCAAAA 0.361761 -0.251099 0.772796 0.220229 0.040674 0.498741 -0.033319 0.310254 0.022361 -0.012908 -1.211837 0.983777 -0.207486 0.203685 0.556022 0.081955
ACACAG -0.463976 -0.456645 0.413886 0.108664 -0.096234 0.011623 -0.308589 0.431225 0.683867 0.208575 -0.808794 -0.483656 0.262985 0.133721 0.063972 0.332349
GAAATT 0.586892 -0.638575 0.215302 -0.176360 0.028501 -0.106639 0.317875 -0.571523 -0.142207 0.443843 -1.207140 1.299901 -0.353055 0.078425 0.526906 -0.214052
TTCAAG 0.464844 0.144424 0.008861 -0.007892 -0.836804 0.368538 -0.464397 -0.190679 -0.042999 -0.344033 -0.531993 0.412433 0.612658 0.831729 -0.426933 -0.054561
TCAAGA 0.318133 -0.125472 1.262354 -0.212171 0.134669 0.191571 0.184460 1.148171 0.056462 -0.244483 -0.698649 0.075099 -0.258648 0.065572 0.774908 0.441291
GCTCCT 0.042664 -0.641842 0.389090 0.508483 0.552642 0.040055 0.654086 0.181735 0.156552 0.794342 0.831755 -1.029855 0.482997 -0.952043 0.173746 -0.467000
GCAGGG -0.364367 -0.383732 0.008060 -0.524183 -0.075258 -1.086480 0.821734 0.175965 0.176232 0.262564 0.125004 -1.300925 0.495696 -0.874134 -0.227517 -0.017443
CTGCAC -0.779310 0.049442 -0.421946 0.244220 -0.488608 -0.221989 -0.240654 -0.197633 0.621243 0.267128 0.514641 -0.625511 0.976304 0.759608 -0.646258 0.246422
AGGCCC -0.460365 0.189509 0.748982 -0.219179 -0.519371 -0.201864 0.391674 1.197010 -0.149569 -0.284720 0.292609 -1.545819 0.656090 0.170963 -0.514395 0.022709
TTCATT 0.225890 0.286536 -0.148133 0.213785 -0.090320 0.855598 -0.455180 -0.313213 -0.271936 -0.009912 -0.490887 1.584110 0.575608 -0.150663 -0.086164 -0.214163
TCACTG 0.001331 -0.389571 0.148812 -0.013856 0.173568 0.705936 -0.175500 0.601320 0.027915 0.537189 -0.094846 -0.300959 0.794496 0.098302 -0.258432 0.193288
CTGATG -0.173891 -0.737581 -0.266025 -0.519236 -0.262889 0.363075 -0.812531 -0.015588 0.252640 0.004601 -0.864781 -0.470767 0.860521 0.133739 -0.502966 0.604513
CCTTCA 0.124787 -0.516961 0.848431 0.346188 0.460180 0.765003 0.061230 0.833209 0.118585 0.369841 0.001024 -0.463696 0.315896 -0.485199 0.408486 -0.113846
CTGGAT 0.437345 -0.499156 -0.342519 -0.231708 -0.369788 -0.312608 0.055015 -0.658412 0.053829 1.022904 -0.239261 -0.033411 0.642132 0.390597 -0.149644 -0.318640
GCCTCT 0.214510 -0.244313 0.270572 0.377742 0.054939 0.500111 0.169381 0.221469 0.080170 0.372835 0.562803 -0.830413 0.852718 -0.605657 0.111747 -0.791893
CCCCTC -0.363256 0.057035 0.225899 1.114950 -0.306873 0.400617 0.348140 0.349280 0.012951 0.165852 1.181122 -0.930352 1.065730 0.098805 -1.009702 -0.318499
TCCTTT 0.419632 0.395632 0.092490 0.437812 -0.057247 1.149567 -0.013062 0.294149 -0.517909 0.292407 0.037709 0.867226 0.763169 -0.487522 -0.215248 -0.691423
CAGACA -0.346387 -0.777164 0.491604 -0.000614 -0.047090 0.032450 -0.190905 0.364803 0.604169 0.292269 -0.737664 -0.509433 0.206815 0.336906 0.144033 0.358403
ATTTAT 0.097038 0.243572 -0.486626 -0.264778 0.234534 0.846400 -0.220064 -0.044803 -0.180341 0.479859 -0.924314 2.046764 -0.094144 -0.137107 0.446033 -0.218355
GATGAG 1.001452 -0.594897 -0.366487 -0.802014 -0.691686 -0.690365 0.145692 -1.070175 0.223953 1.126105 -0.622552 -0.287041 0.405500 0.721938 0.393627 -0.894889
AGAATT 0.250433 0.050457 0.492754 -0.001961 -0.116744 0.060058 0.344357 0.234519 -0.019868 -0.131714 -0.916097 1.375803 -0.228426 0.100969 0.573526 0.217600
AGCTCC -0.055177 0.595474 0.744203 0.130988 -0.546544 0.268199 0.109591 0.868236 -0.190948 -0.580226 0.442336 -1.104657 0.684214 0.397268 -0.027970 -0.692153
CACCAC -1.443169 0.583440 -0.042781 0.992782 -0.233670 -0.388918 0.320518 0.050856 1.002120 0.400308 0.860467 -0.150706 0.631136 0.800439 -0.262308 0.149565
AAAAGT 0.209232 0.149271 0.564345 -0.229228 -0.167133 0.125324 0.418438 0.336790 -0.377688 -0.289937 -1.337852 1.184256 -0.523226 0.133464 0.526128 -0.379802
TTTGAG 0.521030 -0.118957 -0.606928 -0.655703 -0.556119 0.019437 -0.123812 -0.696051 -0.217584 0.130575 -0.628142 0.618145 0.721514 0.219441 -0.121985 -0.604619
AAGCAA 0.333501 -0.496706 0.474256 0.288803 -0.466629 -0.135477 0.298870 -0.148147 0.225010 -0.043793 -1.131525 0.756024 -0.190502 0.988902 -0.174257 0.471169
GGGCCC -0.411775 0.139559 0.047816 -0.140130 -0.296555 -0.566115 0.591594 0.528977 0.012381 0.156185 0.995720 -1.841259 0.852315 -0.318544 -0.551003 -0.217668
GCCCCT -0.289689 -0.386922 0.176077 0.749957 0.018826 -0.047296 0.646051 0.125883 0.371093 0.608421 0.944695 -1.303140 0.817466 -0.590375 -0.239403 -0.577342
AGCTGT -0.333423 0.928627 0.158833 -0.471688 0.055828 -0.174533 0.275972 0.999658 0.046129 -0.059565 0.145317 0.075579 0.426394 -0.154150 0.563079 0.262643
AGCCAC -0.891573 0.783783 0.267131 0.445849 -0.465124 -0.371975 0.398414 0.455938 0.614712 -0.168767 0.360828 -0.428878 0.590421 0.663374 -0.042331 -0.234052
CAGGAC 0.200636 -0.150648 -0.355292 -0.207746 -0.872509 -0.361601 0.165933 -0.396437 0.512530 0.374141 -0.086834 -0.822943 0.817194 0.934285 -0.449761 -0.256796
GTGTGT -0.894032 0.498165 -1.403776 -1.143992 0.566908 -0.344613 -0.640510 0.000477 0.287366 0.753267 0.003881 0.280386 0.869997 -1.174011 0.175431 0.611311
CTGTCT 0.036843 -0.396330 -0.024880 0.288590 0.159891 0.677049 0.039979 0.166985 -0.147766 0.513876 0.011740 -0.095626 0.960985 -0.374603 -0.439689 -0.161726
AGAGCC -0.164406 0.176111 0.821137 -0.095999 -0.411657 -0.367942 0.530959 0.538348 0.115548 -0.423456 0.052480 -0.955960 0.286347 0.205664 0.230691 -0.153075
CCTGGT -0.170916 0.058001 0.075912 0.389084 0.311700 -0.803657 1.075183 -0.049306 0.053083 0.913900 0.892252 -0.202688 0.355136 -0.950509 -0.046464 -0.123305
CATCTG -0.527425 -0.252721 -0.208181 0.309423 0.068829 -0.162755 0.314689 0.005415 0.257988 0.771093 0.160772 0.391272 0.554311 0.160506 -0.556964 0.688689
CAGAAT 0.237557 -0.282457 0.081569 0.002305 -0.347254 0.095491 0.117228 -0.250404 0.068143 0.230493 -0.926533 0.642230 0.208442 0.436379 -0.078632 -0.051504
ATTTCA 0.313853 -0.176386 0.371658 -0.079206 0.223857 0.801762 -0.163129 0.253995 -0.116551 0.289847 -0.979420 1.202296 0.009568 -0.225581 0.340412 -0.054761
TGTGGG -0.469872 0.670141 -0.326061 -0.898741 -0.049018 -0.789166 0.497434 0.513736 -0.093485 0.437994 0.331330 -0.094336 0.853136 -0.667581 -0.043501 0.287486
CATCCT -0.497042 -0.327493 0.110318 0.958727 0.394202 -0.443642 0.922120 -0.090772 0.505847 1.176494 0.964339 0.299537 0.212119 -0.220042 -0.099805 0.449472
CTCTGA -0.101795 0.194895 0.506178 0.649828 -0.140135 -0.072691 0.571204 0.575894 0.131545 -0.172991 0.450915 0.389564 0.585674 -0.104753 -0.475586 0.865775
TCACCA -0.058016 -0.570269 0.946579 0.042056 0.533886 0.816171 -0.062734 1.221972 0.032673 0.445411 -0.156516 -0.768568 0.324619 -0.086524 0.459089 0.077385
GCCTTC 0.067045 0.340872 -0.272608 0.243745 -0.673708 0.316430 -0.335188 -0.360397 0.200310 -0.155708 0.601483 -0.649272 1.174376 0.393017 -0.281919 -0.679013
ACAGGA 0.097734 -0.294372 0.612246 -0.069279 -0.030004 -0.496384 0.410416 0.154608 0.706829 0.172531 -0.624334 -0.147449 -0.096150 -0.082105 0.760855 0.167933
TGGTGA -0.217214 0.326147 0.638525 -0.554338 0.285148 -0.191913 0.190208 1.347980 0.067234 -0.223018 -0.082476 -0.073277 0.187616 -0.173663 0.152772 1.321948
TCAGCT 0.213178 -0.415129 0.576121 0.296381 0.387173 0.365838 0.253340 0.413612 0.219260 0.403516 0.079978 -0.377471 0.295785 -0.642389 0.571498 -0.287207
AGTGGA 0.338923 0.316005 0.673391 -0.348619 -0.220338 -0.878061 0.980281 0.288854 0.018735 -0.108834 -0.214236 0.202516 -0.159132 -0.291584 0.683233 -0.041148
CAAGAG 0.218461 -0.708980 0.163560 0.195382 -0.275839 -0.938597 0.800966 -0.643309 0.386295 0.262537 -0.443647 0.064658 -0.061109 0.643951 -0.281833 0.316794
AAATCA 0.286304 -0.405942 0.693459 0.087410 -0.030274 0.418097 0.060164 0.414575 0.022338 -0.021838 -1.373607 0.870859 -0.305531 0.230813 0.363493 0.112514
GCCAGA -0.037902 -0.073850 0.705442 0.070898 -0.128239 -0.503680 0.584713 0.374193 0.249821 -0.337886 -0.079912 -0.669429 0.151815 -0.064201 0.374755 0.001925
ATCCAG 0.099526 -0.219384 0.116885 0.136673 -0.776641 -0.110645 -0.619768 -0.703574 0.544213 -0.331399 -0.338631 -0.045359 1.010942 0.906584 -0.379317 0.014563
TTCTGC -0.146478 0.912579 0.086162 -0.037806 -0.248010 0.536959 -0.275200 0.529829 -0.111823 -0.157685 0.488156 0.334849 0.961422 0.354791 -0.198409 0.038285
ATGTTT -0.071157 -0.125499 -0.488665 -0.373198 0.151762 0.688196 -0.585429 -0.194254 -0.083210 0.133157 -1.079065 1.316859 0.316241 -0.282996 -0.115915 0.255657
TTTCAT -0.052013 0.236757 -0.333013 0.246561 0.256774 0.452954 0.107247 -0.006975 0.015837 0.696668 -0.390830 1.857907 0.294827 -0.337292 -0.005391 0.209157
AAACCA 0.119393 -0.613748 0.647609 0.291719 -0.054748 0.186775 0.258782 0.277557 0.247919 0.353217 -1.035715 0.357211 -0.153828 0.281956 0.184637 0.014436
TGGAGT -0.187939 0.306885 0.458236 -0.661387 0.329616 0.084845 0.184211 1.077022 -0.494558 -0.178042 -0.091990 -0.194760 0.321574 -0.382356 0.285066 0.222877
GACAGA 0.467397 0.054230 0.408419 -0.249741 -0.503675 -0.777974 0.664857 -0.013259 0.437027 0.129816 -0.408673 0.065283 0.069985 0.428345 0.418494 0.164420
AGGGAA 0.255653 -0.209541 0.356557 -0.486008 -0.454423 -0.806354 0.829888 0.192924 -0.260020 -0.004079 -0.933256 -0.011915 -0.056867 0.141646 -0.191662 0.117071
ATGCAG -0.343070 -0.630315 -0.184478 -0.445749 -0.343416 0.095287 -0.518486 0.021828 0.371931 0.038990 -0.908827 -0.336205 0.578784 0.519899 -0.504191 0.410525
CTTTTC 0.231716 0.146851 -0.157343 0.631651 -0.071172 0.904809 -0.068903 0.117534 -0.522873 0.163281 0.139398 1.181674 0.734492 -0.192274 -0.679474 0.019990
AATGTG -0.090506 -0.380393 -0.357456 -0.429916 -0.095950 0.169529 -0.544665 -0.516227 0.255544 0.130894 -1.207021 0.678474 0.329573 -0.127242 0.344970 -0.220308
GTGAAA 0.067344 -0.568476 -0.198588 -0.393525 -0.185651 0.008323 -0.492605 -0.513438 0.262506 0.035196 -1.374114 0.457903 0.151174 0.192093 0.017145 -0.043750
ACAGCT -0.041371 -0.521556 0.444170 0.049039 0.388970 0.060712 0.135841 0.230515 0.624618 0.224469 -0.387753 -0.544983 0.172482 -0.486062 0.731935 -0.239602
CACCCA -0.941803 -0.191381 0.357648 0.797538 0.091403 -0.118894 0.572076 0.528373 0.626740 0.764789 0.572773 -0.484090 0.648841 0.237752 -0.199641 0.284024
TGTTTG -0.123694 0.098694 -0.203556 -0.943738 0.532150 0.651959 -0.604429 0.826631 -0.521669 0.272749 -0.388425 0.716723 0.558665 -0.689543 -0.041734 0.823845
AGGCCT -0.260389 -0.250684 0.569992 0.036959 -0.054728 -0.026350 0.505587 0.875423 -0.000286 0.183013 0.259252 -0.966731 0.490561 -0.403667 -0.260795 0.115157
CACTGG -0.654548 0.252712 0.098836 0.012124 -0.154354 -0.268818 0.168788 0.735496 0.406260 0.245051 0.178197 -0.256391 0.599396 0.305480 -0.190896 0.677328
CTCTTT 0.170493 0.048761 -0.369609 0.520739 -0.117187 0.818994 -0.030152 -0.194305 -0.457548 0.235119 0.135978 0.947623 0.837949 -0.118454 -0.659138 -0.392493
TCCTGT -0.083947 0.687380 0.193948 0.004793 0.197915 0.512110 -0.028499 0.813408 -0.107363 0.243637 0.545830 0.192509 0.811140 -0.445606 0.208506 -0.046901
GATTTT 0.750948 -0.146807 -0.354829 -0.287232 0.102944 0.481441 0.166669 -0.259296 -0.428105 0.785386 -0.752503 1.476546 0.013125 -0.333872 0.322007 -0.308596
TGGGCT -0.199247 -0.126393 0.085407 -0.413593 0.341251 0.004303 0.219983 0.726334 -0.062679 0.144599 0.284176 -0.924133 0.757592 -0.754203 -0.024118 0.243230
TCTCCC 0.107054 -0.012559 0.617439 0.722369 0.102806 1.056039 0.182762 0.829020 -0.306312 0.309615 0.746492 -0.770653 0.962971 -0.434076 -0.219699 -0.757321
CCATGG -0.385652 -0.375749 0.528358 -0.276967 0.302636 0.156128 0.170275 1.296236 -0.046819 0.285758 0.116600 -0.912439 0.298284 -0.185459 -0.201250 0.774991
TGGCTC -0.460942 -0.145138 0.097483 0.148517 0.062179 0.086545 0.123499 0.598197 -0.037590 -0.216040 0.471232 -0.398803 0.845562 -0.119698 -0.695357 0.558384
TTCCCA 0.056534 -0.108681 0.247138 0.549796 -0.183508 0.538684 0.036585 0.180605 -0.043215 0.152364 0.078501 0.194698 0.793100 -0.068500 -0.424975 -0.068993
CAGCAT -0.541142 -0.218810 -0.113959 0.424171 -0.080882 -0.566486 0.641670 -0.176512 0.440099 0.704642 0.255052 0.404830 0.216861 0.335144 -0.476671 0.564271
TGAAGC -0.237453 0.669610 1.074297 -0.265595 -0.062399 -0.197408 0.424774 1.321011 0.238224 -0.743550 -0.079428 -0.063149 -0.038908 0.147569 0.517381 0.708784
AGTGAA 0.549681 -0.097953 0.463789 -0.263682 -0.218350 -0.502367 0.769955 -0.202700 -0.085665 0.207318 -0.786140 0.678965 -0.467173 0.189935 0.636910 -0.533098
AAAAGC 0.176585 0.125120 0.600574 -0.086262 -0.439444 0.024464 0.255101 0.323832 -0.089675 -0.543298 -1.030652 0.680389 -0.319510 0.625854 0.208826 -0.003456
ATGTGG -0.348149 -0.244140 0.092358 -0.648410 0.158156 0.245465 -0.410197 0.815684 0.131774 -0.160704 -0.837245 -0.262283 0.519912 0.097864 -0.137731 1.097225
TCTGAG 0.615074 -0.329155 0.035882 -0.190764 -0.298384 0.026193 0.461973 -0.220385 -0.178913 0.478966 -0.183746 -0.130236 0.675702 -0.179903 -0.049493 -0.615604
ATAAAT -0.327045 -0.137975 0.070183 0.066624 0.030331 0.526592 -0.508465 -0.081265 0.119407 0.225420 -1.806888 1.687999 -0.470387 -0.240895 0.202905 -0.015710
CTCCTT -0.059537 -0.106607 0.083782 1.204398 0.027304 0.400765 0.438527 -0.116586 -0.347007 0.409628 0.904943 0.468545 0.834210 -0.135653 -1.005489 -0.030569
CTTTGA 0.094304 0.090186 0.314367 0.443884 0.302073 -0.321789 0.733179 0.332131 0.096340 0.215048 0.328301 1.108923 -0.139764 -0.135866 -0.080466 1.195010
TTCTCA 0.248618 0.115064 0.321228 0.289825 0.018059 0.769166 -0.235152 0.379370 -0.051423 0.086473 -0.272282 0.595051 0.624699 -0.036938 -0.005527 0.049613
CCTCTT -0.130638 -0.485425 0.033696 1.151157 0.300239 0.466627 0.705233 0.097788 -0.126667 0.813081 0.799902 0.389803 0.590986 -0.466153 -0.525580 -0.172124
GCTGGT -0.031248 0.010916 -0.105970 0.087408 0.309714 -1.062778 1.008400 -0.420870 0.055555 0.590890 0.674256 -0.262099 0.310700 -1.201446 0.277130 -0.347623
CACCTC -0.805471 0.279251 0.258817 1.224956 -0.455058 0.090828 0.298024 0.051980 0.344650 0.168740 1.037445 -0.244429 1.052754 0.707477 -0.753720 0.027521
ACAAGA 0.066023 -0.218577 1.139322 -0.314045 0.006070 -0.072346 0.171082 0.953952 0.420601 -0.392038 -1.026860 -0.048785 -0.406478 0.150048 0.845468 0.504873
CTGCAA -0.189146 -0.668117 -0.105820 0.501523 0.066435 -0.268043 0.558709 -0.096791 0.394599 0.472369 0.042113 0.208811 0.190012 0.624701 -0.619338 0.792248
ACTTTG 0.135862 -0.438991 0.376861 -0.453601 0.243794 0.664530 -0.324677 0.597778 -0.230716 -0.214745 -0.680819 0.078280 0.292496 -0.689040 0.257772 -0.038948
TGGAAT 0.051692 0.191989 0.175574 -0.313507 -0.067159 0.189760 0.002785 0.434429 -0.027002 -0.008630 -0.683657 0.724655 0.127373 0.052123 0.126938 0.360494
TGCCTT -0.331737 0.490838 0.016382 0.440801 0.188858 0.233218 0.434150 0.551626 -0.215017 0.448422 0.627033 0.704947 0.642783 -0.084031 -0.247330 0.245319
CTTGGA 0.377159 -0.223628 0.348519 0.220447 -0.040819 -0.533823 0.921083 -0.079305 0.104993 0.280969 0.108504 0.678532 0.309074 -0.396938 0.038051 0.281676
TTTTGG 0.077648 0.258717 -0.180126 -0.474668 0.122550 0.366185 0.019530 0.511797 -0.509866 0.143604 -0.531069 1.069807 0.382604 -0.377311 -0.272717 0.508117
TGGGCC -0.320469 0.280042 0.198682 -0.391947 -0.113926 -0.103532 0.118110 0.830913 0.048459 -0.036648 0.560065 -1.378140 0.982806 -0.223969 -0.152398 0.070926
TAATTT -0.003908 0.505272 -0.550782 0.245028 0.179371 0.974014 0.115060 0.334545 -0.157058 -0.472290 -0.971752 2.106469 -0.176435 -0.745102 -0.035674 0.184401
CACAGG -0.841211 0.275782 0.243225 0.040700 -0.385677 -0.668188 0.484948 0.562317 0.284975 0.155546 0.016482 -0.395570 0.543005 0.330504 -0.375361 0.467787
GCAGGC -0.398956 -0.054237 -0.000678 -0.186048 0.049382 -1.159250 0.722101 -0.123147 0.650158 0.077377 0.621174 -1.233372 0.376150 -0.528738 0.413531 -0.159913
GCCATG -0.151156 -0.448218 -0.539992 -0.337035 -0.313088 0.184191 -0.610008 -0.497436 0.436595 -0.143165 -0.246776 -1.134124 1.096612 0.118864 -0.157606 -0.464995
GGTGGG -0.167961 0.573290 -0.299949 -0.924987 -0.274102 -1.628107 1.122895 -0.112514 -0.421436 0.290777 0.237752 -0.705965 0.582928 -1.282185 -0.411817 -0.255511
TCATCA 0.139299 -0.458571 1.092130 -0.070735 0.705850 1.145867 -0.352030 1.353578 0.036916 0.193720 -0.576454 -0.455324 0.036532 -0.180573 0.850719 0.155872
TTTGCT 0.251483 -0.028877 -0.412255 -0.064070 0.183132 0.405635 0.015721 -0.366781 -0.167354 0.413568 -0.282717 0.972393 0.544126 -0.753116 0.214305 -0.546660
CTGTCC -0.006358 -0.004941 -0.092404 0.227140 -0.250961 0.608068 -0.354766 0.320577 0.155682 0.165606 0.502588 -0.839780 1.219619 0.286088 -0.698551 -0.169579
GGGCCT -0.196549 -0.260443 0.043568 0.100859 0.155224 -0.712452 0.974060 0.268864 -0.026335 0.630703 0.896048 -1.120213 0.702210 -0.772348 -0.392482 -0.047306
ATGGTG -0.293169 -0.349089 -0.668122 -0.837316 -0.128144 0.033754 -0.995895 -0.326106 0.539692 0.089926 -0.870946 -0.477998 0.922656 -0.105858 -0.220295 0.309560
TAAAGA 0.198509 0.349348 0.413648 0.064902 -0.105578 -0.017257 0.498711 0.592479 0.244978 -0.822117 -0.904732 1.365981 -0.502181 0.096879 0.398181 0.830004
AGTTTT 0.212910 0.393066 -0.036133 -0.282308 -0.028947 0.697889 0.104030 0.384830 -0.696930 -0.067491 -0.789946 1.450085 -0.002023 -0.477147 0.268687 -0.381295
GAAAGG 0.379028 -0.395050 0.445602 -0.597050 -0.345387 -0.791435 0.781520 0.186419 -0.293499 -0.024452 -0.883508 0.068146 -0.223317 0.293411 -0.099795 0.263661
TCAGTG -0.061616 -0.439484 0.059651 -0.380957 0.312723 0.475776 -0.424166 0.340995 0.264762 0.328427 -0.539461 -0.296950 0.680234 -0.266700 0.170171 0.314711
CCCTTC 0.022014 0.378400 -0.122391 0.707061 -0.522385 0.716026 -0.131986 0.101626 0.012281 -0.096614 0.806459 -0.402465 1.198320 0.390633 -0.749877 -0.386499
GCACAG -0.363243 -0.777641 0.102491 -0.184265 0.167201 -0.458959 0.170312 -0.015645 0.497418 0.341819 -0.258512 -0.926663 0.178184 0.011646 -0.120521 0.249595
AAAATC 0.364574 -0.129278 0.426183 0.216390 -0.403875 0.219766 -0.401580 -0.471203 0.169755 -0.538703 -1.160709 1.156596 0.080272 0.590950 0.141240 0.098429
TGCCCC -0.584932 0.677648 0.368195 0.342354 -0.286715 0.143244 0.189723 1.035230 0.193612 0.138105 1.055467 -0.987323 0.989341 0.190873 -0.168981 -0.132906
ACAAAG -0.061961 -0.537988 0.607322 -0.244639 -0.205310 0.273022 -0.244048 0.420039 0.271576 -0.252097 -1.501082 0.059834 -0.222622 0.334040 0.263555 0.141542
ACTGAA 0.525992 -0.524419 0.451314 0.162440 -0.152362 -0.170942 0.616040 -0.446260 0.315783 0.212601 -0.859055 0.753241 -0.209834 -0.055846 0.605382 -0.469069
TCTCTC 0.192521 0.007084 0.399361 0.937003 0.115774 1.073385 0.073920 0.354604 -0.395197 0.280254 0.600693 0.235744 1.038418 -0.351703 -0.548016 -0.432986
CAGTTT 0.096651 -0.232013 -0.380525 -0.141059 -0.168401 0.278733 -0.089279 -0.271750 -0.170891 0.359621 -0.454397 0.892574 0.542079 0.079705 -0.349527 -0.098351
AACAAG 0.286141 -0.121048 0.233589 -0.038770 -0.954975 -0.050074 -0.486929 -0.507619 0.178606 -0.685993 -1.212118 0.204282 0.162349 1.195614 -0.156328 -0.166243
TGGGGC -0.371914 0.681673 0.010822 -0.740667 -0.292861 -0.857226 0.492115 0.715319 -0.154437 -0.005303 0.667917 -0.999777 0.929528 -0.352696 -0.234963 0.264476
GCTTCC 0.211917 -0.109754 0.535093 0.138624 0.244980 0.621492 0.010975 0.725444 0.040795 -0.011020 0.494417 -1.004137 0.611566 -0.577398 0.348838 -0.532277
CCTTTT 0.192351 -0.038509 -0.128107 0.333487 0.278551 0.907607 0.143932 0.228312 -0.385548 0.479090 -0.100994 1.031716 0.438393 -0.621777 -0.244999 -0.295290
GGAGAT 0.576435 -0.419611 0.133045 -0.127542 -0.096834 -1.284631 1.185563 -0.642111 0.322239 0.875243 0.096342 0.264428 -0.266024 -0.255603 0.677213 0.075915
GAAGGC 0.252937 -0.103070 0.022988 -0.321448 -0.380188 -1.243674 0.986226 -0.502932 0.379229 0.167475 0.094613 -0.295357 0.104575 0.061260 0.266704 -0.080716
TTTAAT 0.235916 0.131070 -0.292780 -0.053763 0.101197 0.678034 0.049791 -0.164596 -0.351641 0.235314 -1.052142 2.070744 0.005807 -0.392303 0.336070 -0.405609
ACTTTT 0.210622 -0.079932 0.012616 0.139057 0.189560 0.891090 -0.033739 0.187727 -0.248885 0.107063 -0.778796 1.414109 0.029611 -0.652143 0.346299 -0.416983
AGCTCT 0.237541 0.264291 0.627944 0.048122 -0.183398 0.369136 0.309208 0.750042 -0.075006 -0.103032 0.110013 -0.420572 0.420507 -0.219697 0.304121 -0.456528
ACCCCA -0.425995 -0.527607 1.013018 0.633956 -0.002283 0.528676 -0.003965 0.829376 0.457294 0.168104 -0.000672 -1.283094 0.479990 0.001908 0.229227 -0.426654
CATGAA 0.050203 -0.318461 0.046460 0.359843 0.030427 -0.710599 0.778553 -0.451538 0.385751 0.771222 -0.063857 0.895389 -0.330771 0.265612 0.324555 0.207340
CAAAAG 0.311649 -0.668916 0.462682 0.236457 -0.348834 -0.142800 0.260498 -0.089387 0.266508 -0.070529 -1.231053 0.727452 -0.223131 0.788624 -0.269019 0.596091
CCCTCT -0.038788 -0.048400 0.515395 0.754705 0.144322 0.872862 0.291306 0.700048 -0.162780 0.471466 0.717229 -0.662580 0.992470 -0.588606 -0.369482 -0.635475
TTTCAA 0.133192 -0.142651 -0.002771 0.403807 0.173370 0.343935 0.264524 -0.163258 -0.030631 0.179169 -0.706336 1.567124 -0.207983 -0.020751 0.032838 0.274303
CCATCT -0.022471 -0.601943 0.665150 0.384064 0.478450 0.812744 0.184723 0.704264 0.028682 0.641061 -0.000625 -0.483276 0.360346 -0.319997 0.241458 -0.293519
